// #### Generated By: http://www.cufonfonts.com ####
/*!
 * The following copyright notice may not be removed under any circumstances.
 * 
 * Copyright:
 * Copyright (c) 2003 by Bitstream, Inc. All Rights Reserved.
 * 
 * Trademark:
 * Bitstream Vera is a trademark of Bitstream, Inc.
 * 
 * Manufacturer:
 * Bitstream Inc.
 * 
 * Vendor URL:
 * http://www.bitstream.com
 */
Cufon.registerFont({"w":1425,"face":{"font-family":"Bitstream Vera Sans Bold Oblique","font-weight":700,"font-style":"oblique","font-stretch":"normal","units-per-em":"2048","panose-1":"2 11 8 3 3 3 4 11 2 4","ascent":"1556","descent":"-492","x-height":"29","bbox":"-340 -1899 2869 483","underline-thickness":"258","underline-position":"-98","slope":"-11","unicode-range":"U+0020-U+20AC"},"glyphs":{" ":{"w":713},"!":{"d":"432,-1493r361,0r-113,573r-131,418r-258,0r28,-418xm211,-356r360,0r-69,356r-361,0","w":934},"\"":{"d":"872,-1493r0,555r-237,0r0,-555r237,0xm432,-1493r0,555r-237,0r0,-555r237,0","w":1067},"#":{"d":"1024,-872r-264,0r-70,274r264,0xm911,-1470r-96,385r264,0r97,-385r221,0r-97,385r297,0r-53,213r-297,0r-69,274r297,0r-54,215r-295,0r-96,383r-221,0r96,-383r-264,0r-96,383r-223,0r96,-383r-285,0r53,-215r281,0r70,-274r-283,0r53,-213r285,0r96,-385r223,0"},"$":{"d":"596,301r-162,0r59,-301v-169,-7,-313,-35,-438,-86r49,-262v119,68,260,114,433,120r61,-311v-140,-21,-242,-57,-306,-111v-64,-54,-95,-129,-95,-224v3,-289,249,-448,554,-453r44,-229r161,0r-43,227v138,8,263,32,377,67r-49,254v-92,-53,-227,-83,-373,-91r-57,288v142,24,246,64,315,117v174,135,105,441,-48,560v-103,80,-241,128,-424,134xm706,-1098v-97,8,-184,57,-184,150v0,76,55,101,133,112xm699,-227v118,-5,206,-54,206,-166v0,-83,-64,-106,-151,-119"},"%":{"d":"1688,-444v0,-101,-33,-172,-123,-172v-131,0,-199,150,-197,301v2,104,30,174,123,174v132,0,197,-150,197,-303xm1114,-285v0,-288,195,-499,479,-499v199,0,346,120,346,311v0,289,-194,502,-479,502v-199,0,-346,-122,-346,-314xm532,29r-245,0r1235,-1549r245,0xm113,-1018v0,-287,197,-502,481,-502v198,0,346,121,346,312v0,289,-196,501,-481,501v-199,0,-346,-119,-346,-311xm686,-1180v0,-100,-33,-172,-123,-172v-130,0,-198,151,-196,301v1,104,29,177,122,177v133,0,197,-152,197,-306","w":2052},"&":{"d":"944,-1278v-102,-1,-186,42,-186,133v0,89,61,157,119,230r297,374v87,-89,145,-208,180,-354r311,0v-59,239,-165,427,-322,573r256,322r-438,0r-84,-106v-138,79,-283,132,-477,135v-301,5,-543,-164,-543,-445v0,-101,31,-194,95,-278v64,-84,163,-164,297,-240v-31,-52,-52,-107,-52,-182v0,-256,258,-409,541,-404v140,3,264,24,383,58r-53,278v-99,-54,-192,-91,-324,-94xm412,-483v-5,184,195,307,385,233v39,-15,79,-35,118,-63r-340,-430v-90,57,-160,135,-163,260","w":1786},"'":{"d":"432,-1493r0,555r-237,0r0,-555r237,0","w":627},"(":{"d":"610,-940v-152,386,-143,842,-6,1210r-291,0v-90,-193,-155,-391,-155,-643v0,-197,42,-393,127,-589v85,-196,212,-394,383,-592r290,0v-155,207,-269,413,-348,614","w":936},")":{"d":"293,-344v152,-386,145,-844,6,-1210r293,0v90,192,153,390,153,643v0,199,-43,397,-127,593v-84,196,-211,392,-380,588r-293,0v155,-207,268,-412,348,-614","w":936},"*":{"d":"1030,-1217r-330,173r330,174r-76,141r-333,-184r0,344r-170,0r0,-344r-334,184r-76,-141r334,-174r-334,-173r76,-141r334,182r0,-344r170,0r0,344r333,-182","w":1071},"+":{"d":"977,-1284r0,524r522,0r0,236r-522,0r0,524r-238,0r0,-524r-522,0r0,-236r522,0r0,-524r238,0","w":1716},",":{"d":"164,-387r360,0r-59,305r-322,373r-213,0r174,-373","w":778},"-":{"d":"109,-735r628,0r-57,291r-629,0","w":850,"k":{"Y":339,"X":206,"W":92,"V":149,"T":301}},".":{"d":"170,-387r360,0r-75,387r-361,0","w":778},"\/":{"d":"657,-1493r232,0r-854,1683r-232,0","w":748},"0":{"d":"481,-748v-33,191,-102,515,131,515v183,0,242,-168,287,-325v37,-131,78,-321,78,-482v0,-136,-39,-217,-164,-217v-188,0,-239,171,-289,328v-17,55,-31,116,-43,181xm846,-1520v329,-1,511,202,506,537v-6,428,-168,784,-453,937v-95,51,-202,75,-319,75v-332,1,-510,-200,-506,-539v5,-425,170,-783,452,-935v95,-50,201,-75,320,-75"},"1":{"d":"141,-266r340,0r187,-965r-363,72r51,-262r361,-72r366,0r-237,1227r338,0r-51,266r-1045,0"},"2":{"d":"821,-1520v274,-4,490,118,490,367v0,97,-27,186,-80,266v-111,167,-517,443,-725,604r649,0r-55,283r-1084,0r56,-285r635,-479v69,-53,123,-107,159,-162v36,-55,54,-108,54,-159v-3,-199,-251,-196,-425,-135v-77,27,-166,64,-264,116r64,-317v161,-59,327,-97,526,-99"},"3":{"d":"1305,-1186v-4,217,-143,343,-338,381v140,30,238,136,239,299v0,165,-69,292,-196,392v-216,170,-715,179,-1010,69r57,-297v106,63,248,108,404,109v193,2,366,-69,366,-234v0,-191,-243,-181,-454,-178r49,-248r162,0v178,2,340,-60,340,-211v0,-179,-259,-173,-433,-134v-67,15,-136,36,-208,64r55,-282v342,-96,975,-138,967,270"},"4":{"d":"844,-1165r-531,614r410,0xm834,-1493r438,0r-185,942r213,0r-53,279r-213,0r-53,272r-365,0r54,-272r-672,0r65,-330"},"5":{"d":"862,-532v-1,-138,-118,-212,-268,-209v-148,3,-267,39,-395,88r163,-840r957,0r-55,283r-650,0r-45,231v55,-15,119,-25,187,-25v282,-3,486,131,487,394v1,408,-312,645,-739,639v-187,-2,-336,-38,-477,-99r59,-303v127,81,248,136,428,140v197,4,349,-113,348,-299"},"6":{"d":"911,-539v0,-121,-55,-197,-170,-198v-163,0,-260,159,-260,336v0,114,60,188,170,188v159,1,260,-155,260,-326xm637,31v-342,0,-539,-207,-535,-553v5,-448,206,-781,520,-924v207,-94,518,-90,730,-8r-54,276v-99,-50,-197,-87,-329,-88v-255,-2,-411,150,-441,381v94,-61,194,-97,336,-100v234,-4,418,159,418,387v0,365,-277,629,-645,629"},"7":{"d":"295,-1493r1126,0r-45,219r-831,1274r-385,0r790,-1210r-708,0"},"8":{"d":"879,-487v0,-112,-77,-181,-191,-181v-152,0,-274,124,-274,275v0,112,76,180,190,180v155,0,275,-121,275,-274xm45,-344v0,-243,183,-393,397,-451v-126,-53,-215,-132,-215,-290v0,-135,59,-237,167,-319v173,-131,636,-161,826,-28v86,60,130,141,130,248v0,218,-155,339,-349,389v146,57,238,142,238,326v0,337,-299,498,-672,498v-293,0,-522,-111,-522,-373xm981,-1126v0,-93,-68,-152,-162,-152v-132,0,-225,86,-225,217v0,91,68,152,162,152v132,0,225,-86,225,-217"},"9":{"d":"801,-1518v342,0,538,207,534,553v-5,447,-206,780,-519,924v-206,95,-521,90,-732,8r53,-276v100,51,197,87,330,88v255,2,412,-149,440,-381v-93,61,-193,98,-334,100v-233,4,-417,-160,-417,-387v0,-365,277,-629,645,-629xm524,-948v0,121,55,197,170,198v163,0,260,-158,260,-335v0,-116,-56,-189,-168,-189v-158,-1,-262,156,-262,326"},":":{"d":"301,-1120r361,0r-74,387r-361,0xm160,-387r360,0r-76,387r-360,0","w":819},";":{"d":"160,-387r360,0r-59,305r-320,373r-213,0r172,-373xm301,-1120r361,0r-74,387r-361,0","w":819},"<":{"d":"1499,-973r-964,332r964,330r0,250r-1282,-463r0,-236r1282,-463r0,250","w":1716},"=":{"d":"217,-987r1282,0r0,235r-1282,0r0,-235xm217,-532r1282,0r0,237r-1282,0r0,-237","w":1716},">":{"d":"217,-973r0,-250r1282,463r0,236r-1282,463r0,-250r965,-330","w":1716},"?":{"d":"283,-356r360,0r-70,356r-360,0xm721,-1520v235,-3,409,104,414,320v6,302,-274,402,-419,570v-31,36,-36,75,-44,126r-361,0v31,-192,92,-232,242,-356v92,-76,225,-140,225,-279v0,-84,-66,-121,-157,-118v-151,4,-275,65,-396,133r62,-314v144,-47,269,-80,434,-82","w":1188},"@":{"d":"1188,-621v0,-108,-51,-180,-154,-180v-153,0,-258,186,-258,355v0,108,53,172,158,172v154,-1,254,-176,254,-347xm1116,-88r31,-158v-53,90,-152,157,-285,158v-199,1,-307,-147,-307,-356v0,-275,216,-543,481,-543v111,0,204,65,228,153r24,-133r203,0r-133,693v203,-26,354,-256,354,-496v0,-300,-271,-489,-592,-483v-407,8,-675,230,-791,537v-33,88,-48,179,-48,274v0,348,247,616,591,610v188,-3,335,-75,453,-170r109,158v-212,151,-522,260,-834,155v-305,-102,-508,-349,-508,-745v0,-268,101,-480,234,-641v174,-210,440,-365,794,-365v353,0,603,153,721,394v39,79,57,162,57,249v5,435,-331,732,-782,709","w":2048},"A":{"d":"1006,-272r-596,0r-148,272r-395,0r844,-1493r440,0r264,1493r-366,0xm555,-543r401,0r-90,-575","w":1585,"k":{"\u201e":-104,"\u201a":-104,"\u2019":253,"\u201d":253,"\u00e7":63,"\u00dc":92,"\u00d6":63,"\u00c7":63,"y":149,"w":92,"v":112,"t":112,"d":63,"c":63,"Y":235,"W":112,"V":139,"U":92,"T":196,"O":63,"C":63,";":-38,":":-38,".":-38,",":-38}},"B":{"d":"1038,-1110v-1,-86,-64,-122,-157,-121r-215,0r-62,316r215,0v131,2,219,-69,219,-195xm979,-506v3,-190,-243,-141,-426,-147r-76,391r228,0v169,1,271,-81,274,-244xm1432,-1174v2,186,-118,340,-271,375v124,34,205,134,205,287v0,353,-295,512,-684,512r-639,0r291,-1493r577,0v177,0,308,26,393,78v85,52,128,132,128,241","w":1561,"k":{"Y":112,"W":112,"V":83}},"C":{"d":"477,-618v0,226,136,373,361,368v188,-4,317,-69,469,-151r-66,331v-157,56,-319,97,-506,99v-383,7,-666,-232,-661,-602v5,-436,234,-718,540,-864v265,-127,631,-95,869,28r-62,309v-113,-85,-225,-138,-401,-141v-316,-4,-543,292,-543,623","w":1503,"k":{"\u015e":73,"S":73}},"D":{"d":"1206,-850v-1,-244,-152,-353,-407,-352r-135,0r-179,911r138,0v349,5,586,-215,583,-559xm334,-1493v263,2,660,-10,840,35v268,67,436,251,436,573v0,441,-262,735,-624,839v-187,54,-646,46,-943,46","w":1700,"k":{"\u201e":36,"\u201a":36,"Y":159,"-":-38}},"E":{"d":"334,-1493r1038,0r-57,291r-653,0r-54,278r615,0r-58,291r-614,0r-66,342r674,0r-55,291r-1061,0","w":1399},"F":{"d":"334,-1493r1038,0r-57,291r-653,0r-54,278r615,0r-58,291r-614,0r-123,633r-385,0","w":1399,"k":{"\u201e":452,"\u201a":452,"\u2019":36,"\u00fc":196,"\u00f6":159,"y":188,"u":196,"r":225,"o":159,"e":159,"a":235,"A":264,";":112,":":112,".":452,"-":102,",":444}},"G":{"d":"479,-627v0,274,186,415,473,369v37,-6,75,-12,113,-23r57,-290r-235,0r49,-258r598,0r-139,718v-183,89,-381,137,-639,140v-402,4,-685,-217,-682,-602v3,-441,241,-729,552,-868v281,-126,709,-88,967,32r-59,309v-140,-81,-280,-138,-473,-141v-343,-6,-582,266,-582,614","w":1681,"k":{"Y":83,"T":36}},"H":{"d":"334,-1493r385,0r-111,569r568,0r110,-569r385,0r-291,1493r-385,0r123,-633r-567,0r-123,633r-385,0","w":1714},"I":{"d":"334,-1493r385,0r-291,1493r-385,0","w":762},"J":{"d":"334,-1493r385,0r-262,1348v-78,405,-308,570,-797,555r57,-291v212,15,320,-86,355,-264","w":762},"K":{"d":"334,-1493r385,0r-105,537r635,-537r465,0r-856,725r645,768r-452,0r-502,-623r-121,623r-385,0","w":1587,"k":{"\u201e":-38,"\u201a":-38,"\u00fc":112,"\u00f6":112,"\u00dc":73,"\u00d6":131,"\u00c7":131,"y":206,"u":112,"o":112,"e":112,"W":55,"U":73,"O":131,"C":131,"-":253}},"L":{"d":"334,-1493r385,0r-234,1202r674,0r-55,291r-1061,0","w":1305,"k":{"\u2019":509,"\u201d":528,"\u00dc":112,"\u00d6":73,"y":253,"Y":319,"W":178,"V":282,"U":112,"T":339,"O":73}},"M":{"d":"334,-1493r473,0r192,793r504,-793r492,0r-291,1493r-365,0r213,-1102r-518,815r-207,0r-206,-815r-213,1102r-365,0","w":2038},"N":{"d":"334,-1493r430,0r342,1034r201,-1034r364,0r-291,1493r-430,0r-342,-1034r-200,1034r-365,0","w":1714},"O":{"d":"479,-612v0,213,99,362,299,362v265,0,387,-185,450,-397v23,-76,32,-154,32,-234v1,-222,-98,-360,-310,-360v-289,0,-471,310,-471,629xm733,29v-377,0,-662,-233,-659,-598v5,-435,219,-734,522,-873v118,-54,255,-78,410,-78v378,0,665,234,661,598v-4,434,-224,734,-525,872v-118,54,-254,79,-409,79","w":1741,"k":{"Y":149,"X":73,"V":73,".":45,"-":-38,",":45}},"P":{"d":"973,-1493v290,-3,500,135,500,406v0,278,-163,458,-382,531v-138,46,-369,37,-563,38r-100,518r-385,0r291,-1493r639,0xm1077,-1047v-1,-114,-79,-167,-200,-167r-211,0r-82,417r213,0v174,1,280,-82,280,-250","w":1501,"k":{"\u015f":73,"\u201e":415,"\u201a":415,"\u2019":-57,"\u201d":-38,"\u00fc":73,"u":73,"s":73,"r":63,"e":55,"a":131,"A":188,".":528,"-":36,",":528}},"Q":{"d":"1667,-922v-2,443,-240,767,-577,895r229,326r-367,0r-192,-272v-311,18,-518,-119,-624,-327v-91,-180,-75,-421,-6,-614v127,-356,398,-606,876,-606v378,0,663,234,661,598xm479,-612v0,213,99,362,299,362v265,0,387,-185,450,-397v23,-76,32,-154,32,-234v1,-222,-98,-360,-310,-360v-289,0,-471,310,-471,629","w":1741,"k":{"-":-38}},"R":{"d":"1018,-1071v0,-110,-72,-143,-193,-143r-159,0r-76,383r162,0v168,1,266,-77,266,-240xm1403,-1130v4,241,-149,413,-371,432v131,34,177,127,221,274r127,424r-383,0r-112,-371v-43,-129,-75,-189,-223,-194r-123,0r-111,565r-385,0r291,-1493r569,0v295,-1,496,96,500,363","w":1577,"k":{"\u00fc":112,"\u00f6":102,"y":131,"u":112,"o":102,"e":102,"Y":188,"T":92,".":-38,",":-38}},"S":{"d":"195,-1006v0,-335,295,-519,659,-514v184,3,351,30,508,74r-62,316v-168,-92,-467,-159,-662,-66v-81,39,-113,145,-46,204v47,42,215,72,305,95v132,34,229,82,291,145v62,63,92,144,92,244v-2,348,-303,542,-680,537v-214,-3,-403,-43,-569,-107r61,-325v151,86,302,149,506,153v150,3,297,-63,297,-192v0,-37,-12,-66,-37,-86v-46,-40,-226,-77,-319,-101v-205,-51,-344,-149,-344,-377","w":1475,"k":{"\u015e":73,"S":73}},"T":{"d":"156,-1493r1376,0r-57,291r-496,0r-234,1202r-385,0r234,-1202r-496,0","w":1397,"k":{"\u015f":243,"\u201e":301,"\u201a":301,"\u00fc":264,"\u00f6":264,"\u00e7":264,"y":339,"w":282,"u":264,"s":243,"r":225,"o":264,"e":264,"c":264,"a":243,"T":-47,"A":159,";":112,":":112,".":348,"-":301,",":329}},"U":{"d":"680,29v-357,5,-575,-164,-536,-523v3,-30,9,-65,16,-104r174,-895r385,0r-189,979v-25,163,45,265,205,260v223,-8,284,-128,326,-344r174,-895r385,0r-174,895v-85,420,-286,622,-766,627","w":1663,"k":{"A":92}},"V":{"d":"156,-1493r366,0r183,1116r618,-1116r397,0r-843,1493r-459,0","w":1585,"k":{"\u201e":272,"\u201a":272,"\u00fc":149,"\u00f6":149,"\u00d6":36,"u":149,"o":149,"i":36,"e":149,"a":159,"O":36,"A":139,";":92,":":92,".":319,"-":149,",":319}},"W":{"d":"219,-1493r356,0r46,1085r469,-1085r366,0r49,1085r453,-1085r383,0r-643,1493r-436,0r-50,-1135r-483,1135r-446,0","w":2259,"k":{"\u00f6":112,"r":120,"o":112,"e":131,"a":139,"A":73,";":63,":":63,".":178,"-":92,",":178}},"X":{"d":"1016,-756r366,756r-391,0r-243,-500r-437,500r-415,0r671,-766r-354,-727r393,0r230,469r409,-469r418,0","w":1579,"k":{"\u00d6":73,"\u00c7":73,"e":131,"O":73,"C":73,"-":243}},"Y":{"d":"129,-1493r385,0r254,553r444,-553r445,0r-737,870r-121,623r-385,0r121,-623","w":1483,"k":{"\u201e":405,"\u201a":376,"\u00fc":225,"\u00f6":264,"\u00d6":73,"\u00c7":73,"u":225,"o":264,"e":264,"a":243,"O":73,"C":73,"A":196,";":178,":":178,".":339,"-":301,",":339}},"Z":{"d":"260,-1493r1256,0r-48,238r-968,964r805,0r-58,291r-1300,0r45,-238r971,-964r-760,0","w":1485,"k":{"-":149}},"[":{"d":"334,-1556r620,0r-45,225r-278,0r-269,1376r281,0r-45,225r-618,0","w":936},"\\":{"d":"344,190r-199,-1683r222,0r198,1683r-221,0","w":748},"]":{"d":"563,270r-620,0r43,-225r280,0r269,-1376r-281,0r43,-225r621,0","w":936},"^":{"d":"981,-1493r528,557r-241,0r-410,-301r-409,301r-242,0r528,-557r246,0","w":1716},"_":{"d":"1044,225r0,258r-1064,0r0,-258r1064,0","w":1024},"`":{"d":"551,-1638r209,376r-197,0r-295,-376r283,0","w":1024},"a":{"d":"403,-340v-3,167,246,153,336,64v55,-55,92,-131,107,-228v-200,-1,-440,-20,-443,164xm760,-1147v323,-2,520,106,486,421v-3,27,-7,56,-13,87r-125,639r-358,0r30,-166v-102,114,-212,191,-399,195v-201,4,-347,-112,-346,-305v0,-143,55,-252,165,-328v110,-76,270,-113,478,-113r211,0v62,-225,-262,-209,-455,-169v-69,15,-136,38,-201,69r54,-273v144,-36,298,-56,473,-57","w":1382,"k":{"y":63}},"b":{"d":"1016,-678v0,-130,-60,-209,-185,-209v-207,0,-313,224,-313,459v0,120,69,198,187,197v200,-3,311,-220,311,-447xm786,29v-171,0,-264,-72,-331,-191r-33,162r-359,0r302,-1556r360,0r-117,600v94,-111,193,-188,369,-191v257,-4,412,182,409,447v-4,312,-157,548,-354,664v-76,45,-159,65,-246,65","w":1466},"c":{"d":"625,29v-328,3,-549,-146,-549,-455v0,-335,205,-564,453,-666v187,-77,479,-70,661,7r-57,292v-81,-53,-166,-95,-279,-98v-233,-4,-397,182,-397,418v0,159,101,248,264,246v129,-1,234,-41,319,-99r-55,293v-108,38,-224,61,-360,62","w":1214},"d":{"d":"444,-440v0,130,60,209,185,209v207,0,311,-223,311,-459v0,-120,-66,-198,-184,-197v-201,2,-312,220,-312,447xm674,-1147v172,0,264,72,332,191r116,-600r361,0r-303,1556r-361,0r33,-162v-94,111,-193,188,-369,191v-257,4,-412,-182,-409,-447v4,-312,157,-548,354,-664v76,-45,159,-65,246,-65","w":1466},"e":{"d":"817,-1147v317,0,534,198,489,531v-5,47,-20,107,-30,155r-838,0v-16,175,84,255,260,252v192,-4,349,-62,502,-135r-55,278v-159,58,-323,94,-524,95v-328,3,-547,-152,-547,-463v0,-326,189,-546,424,-651v95,-43,202,-62,319,-62xm950,-682v29,-129,-46,-230,-172,-227v-159,4,-246,95,-291,227r463,0","w":1389},"f":{"d":"1106,-1556r-47,235v-103,5,-247,-17,-307,27v-40,29,-50,113,-64,174r303,0r-49,256r-303,0r-168,864r-360,0r168,-864r-177,0r50,-256r176,0v24,-149,74,-283,170,-350v79,-55,189,-86,333,-86r275,0","w":891,"k":{"\u2019":-141,"\u201d":-86,".":112,"-":36,",":112}},"g":{"d":"94,98v99,62,201,105,344,107v282,4,382,-147,418,-395v-99,110,-193,187,-369,190v-260,4,-417,-188,-411,-457v6,-290,161,-515,351,-625v75,-44,158,-63,245,-63v175,0,266,70,334,191r30,-166r361,0r-189,973v-77,394,-314,589,-776,589v-150,0,-274,-24,-391,-65xm940,-674v0,-132,-58,-213,-184,-213v-191,0,-307,206,-307,418v0,130,59,209,184,209v189,-1,307,-205,307,-414","w":1466},"h":{"d":"1016,-1147v226,-5,350,144,318,380v-3,26,-7,54,-13,85r-133,682r-359,0r131,-680v25,-114,-19,-200,-129,-197v-176,5,-268,155,-301,326r-108,551r-359,0r302,-1556r360,0r-117,600v112,-107,223,-187,408,-191","w":1458},"i":{"d":"281,-1120r360,0r-219,1120r-359,0xm365,-1556r360,0r-57,292r-361,0","w":702},"j":{"d":"281,-1120r360,0r-215,1100v-57,286,-195,456,-510,462r-178,0r45,-235v87,3,172,-4,211,-45v30,-32,55,-91,72,-182xm365,-1556r360,0r-57,292r-361,0","w":702},"k":{"d":"365,-1556r360,0r-164,843r483,-407r422,0r-651,518r473,602r-409,0r-363,-483r-94,483r-359,0","w":1362,"k":{"\u00f6":73,"o":73,"e":73}},"l":{"d":"365,-1556r360,0r-303,1556r-359,0","w":702},"m":{"d":"985,-1147v149,-4,279,88,299,213v94,-117,225,-210,408,-213v218,-4,351,145,318,377v-3,26,-7,55,-13,88r-133,682r-361,0r116,-599v17,-83,26,-136,26,-159v1,-72,-45,-122,-117,-119v-169,7,-243,155,-277,326r-108,551r-361,0r136,-698v23,-102,-15,-182,-111,-179v-161,5,-245,163,-277,326r-108,551r-359,0r218,-1120r360,0r-33,164v95,-106,206,-187,377,-191","w":2134},"n":{"d":"1016,-1147v226,-5,350,144,318,380v-3,26,-7,54,-13,85r-133,682r-359,0r131,-680v25,-114,-19,-200,-129,-197v-176,5,-268,155,-301,326r-108,551r-359,0r218,-1120r360,0r-33,164v112,-107,223,-187,408,-191","w":1458},"o":{"d":"958,-676v0,-134,-61,-215,-190,-215v-204,0,-319,219,-319,447v0,135,61,217,190,217v204,0,319,-221,319,-449xm606,29v-313,0,-537,-172,-532,-473v6,-318,185,-540,416,-643v92,-41,195,-60,307,-60v316,0,540,170,536,473v-4,321,-187,540,-417,643v-92,41,-196,60,-310,60","w":1407},"p":{"d":"786,29v-171,0,-264,-72,-331,-191r-115,588r-360,0r301,-1546r360,0r-33,164v94,-111,193,-188,369,-191v257,-4,412,182,409,447v-4,312,-157,548,-354,664v-76,45,-159,65,-246,65xm1016,-678v0,-130,-60,-209,-185,-209v-207,0,-313,224,-313,459v0,120,69,198,187,197v200,-3,311,-220,311,-447","w":1466},"q":{"d":"674,-1147v172,0,264,72,332,191r30,-164r361,0r-301,1546r-361,0r115,-588v-92,111,-192,188,-367,191v-257,4,-412,-182,-409,-447v4,-312,157,-548,354,-664v76,-45,159,-65,246,-65xm444,-440v0,130,60,209,185,209v207,0,311,-223,311,-459v0,-120,-66,-198,-184,-197v-201,2,-312,220,-312,447","w":1466},"r":{"d":"602,-928v96,-148,273,-247,514,-211r-63,324v-47,-27,-107,-43,-179,-43v-207,0,-312,148,-350,342r-102,516r-359,0r218,-1120r360,0","w":1010,"k":{"\u2019":-86,"\u201d":-38,".":292,",":301}},"s":{"d":"150,-758v0,-279,235,-392,546,-389v168,0,311,24,451,62r-53,278v-118,-56,-253,-102,-406,-102v-71,0,-125,10,-164,27v-58,26,-81,92,-25,127v26,16,130,38,191,50v145,29,246,71,304,119v58,48,87,115,87,201v0,290,-257,417,-581,414v-175,-2,-332,-29,-480,-72r54,-281v117,69,261,114,434,115v75,0,131,-11,170,-27v60,-25,78,-98,25,-135v-25,-17,-134,-40,-197,-53v-219,-46,-356,-109,-356,-334","w":1219},"t":{"d":"492,0v-221,3,-356,-100,-329,-324v2,-21,5,-43,9,-65r92,-475r-176,0r49,-256r178,0r62,-318r360,0r-61,318r366,0r-51,256r-366,0r-97,501v-24,150,182,97,316,107r-51,256r-301,0","w":979},"u":{"d":"444,29v-226,5,-348,-145,-317,-384v3,-26,7,-53,12,-81r131,-684r359,0r-131,680v-24,114,19,199,129,196v175,-5,267,-154,301,-325r108,-551r359,0r-217,1120r-361,0r33,-164v-105,109,-222,189,-406,193","w":1458},"v":{"d":"129,-1120r330,0r145,782r422,-782r363,0r-658,1120r-379,0","w":1335,"k":{".":167,",":167}},"w":{"d":"178,-1120r330,0r39,770r338,-770r284,0r41,768r336,-768r352,0r-512,1120r-380,0r-37,-770r-342,770r-371,0","w":1892,"k":{".":131,",":131}},"x":{"d":"453,-573r-297,-547r372,0r166,332r291,-332r389,0r-510,545r312,575r-373,0r-176,-354r-322,354r-389,0","w":1321},"y":{"d":"135,-1120r338,0r154,776r397,-776r383,0r-709,1226v-79,138,-154,227,-220,272v-108,75,-296,64,-478,64r37,-235v91,0,196,4,249,-29v47,-29,89,-106,120,-164","w":1335,"k":{".":188,",":159}},"z":{"d":"223,-1120r977,0r-49,250r-698,614r579,0r-49,256r-1001,0r47,-250r700,-614r-555,0","w":1192},"{":{"d":"785,-51v-15,135,45,163,194,160r68,0r-43,225r-218,0v-229,2,-382,-74,-356,-298v14,-124,53,-237,59,-370v6,-155,-110,-163,-272,-160r45,-223v113,4,215,-12,268,-58v80,-69,106,-273,134,-413v50,-255,190,-366,489,-368r217,0r-43,225v-102,-3,-220,8,-261,43v-59,51,-88,238,-112,352v-39,192,-90,282,-262,324v118,26,176,109,150,252","w":1458},"|":{"d":"487,-1565r0,2048r-227,0r0,-2048r227,0","w":748},"}":{"d":"972,-926v-17,155,44,214,206,209r63,0r-45,223v-113,-4,-215,12,-268,58v-77,67,-103,264,-131,401v-50,254,-191,367,-490,369r-217,0r43,-225v103,3,220,-9,261,-45v59,-52,88,-237,112,-351v39,-192,92,-282,264,-325v-117,-24,-171,-104,-152,-245v16,-117,60,-232,60,-355v0,-112,-65,-115,-197,-119r-67,0r43,-225r219,0v232,-2,395,77,354,304","w":1458},"~":{"d":"1141,-690v160,0,245,-71,358,-160r0,244v-174,156,-433,187,-675,73v-100,-47,-186,-61,-249,-61v-158,0,-250,72,-358,160r0,-244v175,-156,433,-188,675,-73v100,47,186,61,249,61","w":1716},"\u00c7":{"d":"781,150v0,-60,-28,-94,-58,-150r142,0v40,57,68,104,71,182v8,222,-279,252,-485,193r29,-156v93,47,301,63,301,-69xm477,-618v0,226,136,373,361,368v188,-4,317,-69,469,-151r-66,331v-157,56,-319,97,-506,99v-383,7,-666,-232,-661,-602v5,-436,234,-718,540,-864v265,-127,631,-95,869,28r-62,309v-113,-85,-225,-138,-401,-141v-316,-4,-543,292,-543,623","w":1503,"k":{"\u015e":73,"S":73}},"\u00d6":{"d":"790,-1899r236,0r-47,246r-236,0xm1185,-1899r238,0r-49,246r-236,0xm479,-612v0,213,99,362,299,362v265,0,387,-185,450,-397v23,-76,32,-154,32,-234v1,-222,-98,-360,-310,-360v-289,0,-471,310,-471,629xm733,29v-377,0,-662,-233,-659,-598v5,-435,219,-734,522,-873v118,-54,255,-78,410,-78v378,0,665,234,661,598v-4,434,-224,734,-525,872v-118,54,-254,79,-409,79","w":1741,"k":{"Y":149,"X":73,"V":73,".":45,"-":-38,",":45}},"\u00dc":{"d":"711,-1899r236,0r-47,246r-236,0xm1106,-1899r238,0r-49,246r-236,0xm680,29v-357,5,-575,-164,-536,-523v3,-30,9,-65,16,-104r174,-895r385,0r-189,979v-25,163,45,265,205,260v223,-8,284,-128,326,-344r174,-895r385,0r-174,895v-85,420,-286,622,-766,627","w":1663,"k":{"A":92}},"\u00e7":{"d":"606,150v0,-60,-28,-94,-58,-150r142,0v40,57,68,104,71,182v8,222,-279,252,-485,193r29,-156v93,47,301,63,301,-69xm625,29v-328,3,-549,-146,-549,-455v0,-335,205,-564,453,-666v187,-77,479,-70,661,7r-57,292v-81,-53,-166,-95,-279,-98v-233,-4,-397,182,-397,418v0,159,101,248,264,246v129,-1,234,-41,319,-99r-55,293v-108,38,-224,61,-360,62","w":1214},"\u00f6":{"d":"551,-1585r238,0r-49,246r-236,0xm949,-1585r235,0r-49,246r-235,0xm958,-676v0,-134,-61,-215,-190,-215v-204,0,-319,219,-319,447v0,135,61,217,190,217v204,0,319,-221,319,-449xm606,29v-313,0,-537,-172,-532,-473v6,-318,185,-540,416,-643v92,-41,195,-60,307,-60v316,0,540,170,536,473v-4,321,-187,540,-417,643v-92,41,-196,60,-310,60","w":1407},"\u00fc":{"d":"575,-1585r238,0r-49,246r-236,0xm973,-1585r235,0r-49,246r-235,0xm444,29v-226,5,-348,-145,-317,-384v3,-26,7,-53,12,-81r131,-684r359,0r-131,680v-24,114,19,199,129,196v175,-5,267,-154,301,-325r108,-551r359,0r-217,1120r-361,0r33,-164v-105,109,-222,189,-406,193","w":1458},"\u2020":{"d":"487,-1493r330,0r-74,381r289,0r-45,238r-289,0r-209,1071r-329,0r207,-1071r-289,0r45,-238r291,0","w":1024},"\u2022":{"d":"515,-428v-158,-63,-276,-261,-193,-473v49,-125,164,-219,333,-219v169,0,281,99,333,220v62,145,0,316,-79,394v-85,84,-251,135,-394,78","w":1309},"\u2026":{"d":"805,-387r360,0r-75,387r-361,0xm170,-387r360,0r-75,387r-361,0xm1440,-387r360,0r-76,387r-360,0","w":2048},"\u2013":{"d":"-10,-690r1024,0r-51,258r-1024,0","w":1024},"\u2014":{"d":"-10,-690r2048,0r-51,258r-2048,0","w":2048},"\u201c":{"d":"1112,-856r-340,0r55,-285r295,-352r213,0r-168,352xm571,-856r-340,0r58,-285r295,-352r213,0r-170,352","w":1319,"k":{"Y":-38,"J":92,"A":264}},"\u201d":{"d":"913,-1493r340,0r-55,285r-295,352r-213,0r168,-352xm375,-1493r340,0r-56,285r-297,352r-212,0r169,-352","w":1319},"\u2018":{"d":"571,-856r-340,0r58,-285r295,-352r213,0r-170,352","w":778,"k":{"Y":-75,"V":-38,"J":92,"A":272}},"\u2019":{"d":"375,-1493r340,0r-56,285r-297,352r-212,0r169,-352","w":778},"\u2039":{"d":"727,-1063r-49,252r-346,229r258,222r-43,223r-422,-369r37,-186","w":844},"\u203a":{"d":"78,-135r49,-254r344,-229r-256,-222r43,-223r420,371r-35,186","w":844},"\u2021":{"d":"487,-1493r330,0r-74,381r289,0r-45,238r-291,0r-88,452r291,0r-47,238r-289,0r-74,381r-331,0r73,-381r-288,0r47,-238r289,0r88,-452r-289,0r45,-238r289,0","w":1024},"\u201a":{"d":"156,-387r340,0r-56,285r-297,352r-213,0r170,-352","w":778,"k":{"Y":415,"W":225,"V":339,"T":452}},"\u201e":{"d":"694,-387r340,0r-55,285r-295,352r-213,0r168,-352xm156,-387r340,0r-56,285r-297,352r-213,0r170,-352","w":1319,"k":{"Y":415,"W":225,"V":339,"T":452}},"\u2030":{"d":"2042,-285v0,-288,197,-499,481,-499v198,0,346,120,346,311v0,289,-195,502,-481,502v-199,0,-346,-122,-346,-314xm2615,-444v0,-101,-32,-172,-123,-172v-131,0,-198,150,-196,301v2,104,30,174,123,174v132,0,196,-150,196,-303xm1688,-444v0,-101,-33,-172,-123,-172v-131,0,-199,150,-197,301v2,104,30,174,123,174v132,0,197,-150,197,-303xm1114,-285v0,-288,195,-499,479,-499v199,0,346,120,346,311v0,289,-194,502,-479,502v-199,0,-346,-122,-346,-314xm532,29r-245,0r1235,-1549r245,0xm113,-1018v0,-287,197,-502,481,-502v198,0,346,121,346,312v0,289,-196,501,-481,501v-199,0,-346,-119,-346,-311xm686,-1180v0,-100,-33,-172,-123,-172v-130,0,-198,151,-196,301v1,104,29,177,122,177v133,0,197,-152,197,-306","w":2978},"\u0131":{"d":"281,-1120r360,0r-219,1120r-359,0","w":702},"\u011e":{"d":"1003,-1635v-177,1,-284,-90,-282,-264r143,0v15,84,68,115,170,115v97,0,172,-45,201,-115r153,0v-48,164,-179,263,-385,264xm479,-627v0,274,186,415,473,369v37,-6,75,-12,113,-23r57,-290r-235,0r49,-258r598,0r-139,718v-183,89,-381,137,-639,140v-402,4,-685,-217,-682,-602v3,-441,241,-729,552,-868v281,-126,709,-88,967,32r-59,309v-140,-81,-280,-138,-473,-141v-343,-6,-582,266,-582,614","w":1681,"k":{"Y":83,"T":36}},"\u011f":{"d":"842,-1309v-196,2,-301,-99,-278,-297r142,0v-3,100,64,144,166,144v117,-1,178,-54,213,-144r152,0v-41,182,-179,295,-395,297xm94,98v99,62,201,105,344,107v282,4,382,-147,418,-395v-99,110,-193,187,-369,190v-260,4,-417,-188,-411,-457v6,-290,161,-515,351,-625v75,-44,158,-63,245,-63v175,0,266,70,334,191r30,-166r361,0r-189,973v-77,394,-314,589,-776,589v-150,0,-274,-24,-391,-65xm940,-674v0,-132,-58,-213,-184,-213v-191,0,-307,206,-307,418v0,130,59,209,184,209v189,-1,307,-205,307,-414","w":1466},"\u0130":{"d":"452,-1899r275,0r-47,246r-275,0xm334,-1493r385,0r-291,1493r-385,0","w":762},"\u015e":{"d":"600,150v0,-60,-28,-94,-58,-150r142,0v40,57,68,104,71,182v8,222,-279,252,-485,193r29,-156v93,47,301,63,301,-69xm195,-1006v0,-335,295,-519,659,-514v184,3,351,30,508,74r-62,316v-168,-92,-467,-159,-662,-66v-81,39,-113,145,-46,204v47,42,215,72,305,95v132,34,229,82,291,145v62,63,92,144,92,244v-2,348,-303,542,-680,537v-214,-3,-403,-43,-569,-107r61,-325v151,86,302,149,506,153v150,3,297,-63,297,-192v0,-37,-12,-66,-37,-86v-46,-40,-226,-77,-319,-101v-205,-51,-344,-149,-344,-377","w":1475,"k":{"\u015e":73,"S":73}},"\u015f":{"d":"473,150v0,-60,-28,-94,-58,-150r142,0v40,57,68,104,71,182v8,222,-279,252,-485,193r29,-156v93,47,301,63,301,-69xm150,-758v0,-279,235,-392,546,-389v168,0,311,24,451,62r-53,278v-118,-56,-253,-102,-406,-102v-71,0,-125,10,-164,27v-58,26,-81,92,-25,127v26,16,130,38,191,50v145,29,246,71,304,119v58,48,87,115,87,201v0,290,-257,417,-581,414v-175,-2,-332,-29,-480,-72r54,-281v117,69,261,114,434,115v75,0,131,-11,170,-27v60,-25,78,-98,25,-135v-25,-17,-134,-40,-197,-53v-219,-46,-356,-109,-356,-334","w":1219},"\u20ac":{"d":"545,-477v29,150,130,244,301,244v163,0,291,-82,403,-168r-59,331v-140,55,-285,98,-455,99v-340,2,-546,-199,-590,-506r-229,0r88,-195r139,0v4,-54,11,-96,25,-149r-176,0r86,-195r155,0v131,-327,506,-588,961,-476v70,18,141,46,213,83r-55,309v-96,-93,-190,-157,-355,-157v-179,0,-296,109,-372,241r497,0r-86,195r-483,0v-10,48,-16,94,-20,149r438,0r-88,195r-338,0"},"\u00a0":{"w":713}}});
/*!
 * The following copyright notice may not be removed under any circumstances.
 * 
 * Copyright:
 * Copyright (c) 2003 by Bitstream, Inc. All Rights Reserved.
 * 
 * Trademark:
 * Bitstream Vera is a trademark of Bitstream, Inc.
 * 
 * Manufacturer:
 * Bitstream Inc.
 * 
 * Vendor URL:
 * http://www.bitstream.com
 */
Cufon.registerFont({"w":1425,"face":{"font-family":"Bitstream Vera Sans Bold","font-weight":700,"font-stretch":"normal","units-per-em":"2048","panose-1":"2 11 8 3 3 6 4 2 2 4","ascent":"1556","descent":"-492","x-height":"29","bbox":"-115 -1899 2902 483","underline-thickness":"258","underline-position":"-98","unicode-range":"U+0020-U+20AC"},"glyphs":{" ":{"w":713},"!":{"d":"287,-1493r360,0r0,573r-51,418r-258,0r-51,-418r0,-573xm287,-356r360,0r0,356r-360,0r0,-356","w":934},"\"":{"d":"872,-1493r0,555r-237,0r0,-555r237,0xm432,-1493r0,555r-237,0r0,-555r237,0","w":1067},"#":{"d":"911,-1470r-96,385r264,0r97,-385r221,0r-97,385r277,0r0,213r-330,0r-69,274r284,0r0,215r-336,0r-96,383r-221,0r96,-383r-264,0r-96,383r-223,0r96,-383r-279,0r0,-215r328,0r70,-274r-283,0r0,-213r338,0r96,-385r223,0xm1024,-872r-264,0r-70,274r264,0","w":1716},"$":{"d":"1286,-397v0,278,-198,379,-491,395r0,303r-162,0r-1,-301v-177,-7,-330,-40,-470,-92r0,-262v138,71,286,118,471,126r0,-311v-280,-52,-473,-111,-473,-397v0,-261,198,-380,472,-389r1,-231r162,0r0,227v142,12,275,35,401,69r0,254v-121,-51,-249,-86,-401,-94r0,287v299,52,491,110,491,416xm633,-1097v-84,3,-156,47,-156,126v0,90,65,124,156,135r0,-261xm795,-232v105,-1,174,-35,174,-133v0,-107,-64,-132,-174,-145r0,278"},"%":{"d":"1735,-379v1,-130,-37,-237,-148,-237v-111,0,-149,108,-149,237v0,131,36,238,149,238v112,0,148,-107,148,-238xm1186,-379v0,-247,155,-405,401,-405v247,0,400,157,400,405v0,248,-153,408,-400,408v-247,0,-401,-160,-401,-408xm670,29r-221,0r933,-1549r222,0xm66,-1114v0,-248,152,-406,399,-406v247,0,399,158,399,406v0,248,-152,407,-399,407v-247,0,-399,-159,-399,-407xm614,-1114v0,-130,-38,-238,-149,-238v-112,0,-150,108,-150,238v0,131,38,240,150,240v112,0,149,-110,149,-240","w":2052},"&":{"d":"864,-1278v-91,-1,-162,32,-162,113v0,72,49,121,97,174r409,450v69,-92,106,-203,113,-354r311,0v-21,247,-95,432,-225,573r293,322r-424,0r-98,-109v-127,85,-272,135,-467,138v-325,6,-594,-190,-588,-496v5,-249,126,-355,305,-477v-48,-61,-82,-122,-82,-217v0,-234,211,-363,465,-359v143,2,270,24,395,58r0,278v-106,-53,-206,-92,-342,-94xm469,-506v-3,194,210,333,414,256v38,-14,75,-34,108,-61r-391,-432v-75,54,-128,124,-131,237","w":1786},"'":{"d":"432,-1493r0,555r-237,0r0,-555r237,0","w":627},"(":{"d":"516,-643v0,361,111,643,256,913r-297,0v-169,-278,-299,-534,-299,-911v0,-372,132,-640,299,-913r297,0v-145,271,-256,548,-256,911","w":936},")":{"d":"760,-641v0,374,-131,636,-299,911r-297,0v145,-272,256,-550,256,-913v0,-361,-112,-642,-256,-911r297,0v168,275,299,538,299,913","w":936},"*":{"d":"1030,-1217r-330,173r330,174r-76,141r-333,-184r0,344r-170,0r0,-344r-334,184r-76,-141r334,-174r-334,-173r76,-141r334,182r0,-344r170,0r0,344r333,-182","w":1071},"+":{"d":"977,-1284r0,524r522,0r0,236r-522,0r0,524r-238,0r0,-524r-522,0r0,-236r522,0r0,-524r238,0","w":1716},",":{"d":"209,-387r360,0r0,305r-247,373r-213,0r100,-373r0,-305","w":778},"-":{"d":"111,-735r628,0r0,291r-628,0r0,-291","w":850,"k":{"Y":301,"X":167,"W":92,"V":149,"T":301}},".":{"d":"209,-387r360,0r0,387r-360,0r0,-387","w":778},"\/":{"d":"526,-1493r222,0r-527,1683r-221,0","w":748},"0":{"d":"889,-349v66,-126,67,-666,1,-793v-39,-74,-94,-115,-177,-115v-83,0,-138,41,-177,115v-67,127,-66,667,0,793v40,75,94,116,177,116v82,0,137,-41,176,-116xm713,-1520v423,0,614,320,614,775v0,456,-191,774,-614,774v-423,0,-615,-319,-615,-774v0,-457,190,-775,615,-775"},"1":{"d":"240,-266r340,0r0,-965r-349,72r0,-262r347,-72r366,0r0,1227r340,0r0,266r-1044,0r0,-266"},"2":{"d":"672,-1520v328,-3,562,143,565,447v0,81,-21,157,-63,227v-98,160,-415,409,-584,563r657,0r0,283r-1085,0r0,-283r545,-481v78,-74,140,-138,143,-260v4,-143,-110,-237,-258,-233v-167,5,-296,74,-426,153r0,-328v154,-51,318,-87,506,-88"},"3":{"d":"1227,-1137v0,191,-108,291,-273,332v185,47,308,164,308,381v0,148,-59,258,-170,338v-201,145,-688,142,-955,41r0,-297v125,62,259,108,424,109v176,2,316,-52,316,-205v0,-210,-250,-214,-484,-207r0,-248r162,0v168,-1,287,-39,287,-184v0,-130,-117,-181,-264,-180v-143,1,-267,35,-377,83r0,-282v250,-80,695,-96,881,32v95,65,145,159,145,287"},"4":{"d":"754,-1176r-422,625r422,0r0,-625xm690,-1493r428,0r0,942r213,0r0,279r-213,0r0,272r-364,0r0,-272r-662,0r0,-330"},"5":{"d":"596,-741v-143,3,-260,39,-379,88r0,-840r957,0r0,283r-650,0r0,231v56,-15,113,-25,181,-25v348,-4,578,181,577,517v-1,342,-262,520,-625,516v-191,-2,-352,-39,-499,-99r0,-303v134,76,264,136,438,140v174,4,301,-90,301,-254v0,-165,-127,-257,-301,-254"},"6":{"d":"944,-475v0,-161,-54,-262,-203,-262v-147,0,-202,102,-202,262v0,160,54,262,202,262v148,0,203,-102,203,-262xm825,-1518v149,0,274,24,392,64r0,276v-171,-93,-470,-137,-611,8v-63,65,-101,158,-112,283v82,-60,178,-96,311,-98v295,-4,510,195,510,485v0,326,-242,533,-578,529v-415,-5,-610,-309,-610,-754v0,-468,249,-794,698,-793"},"7":{"d":"137,-1493r1125,0r0,217r-582,1276r-375,0r551,-1210r-719,0r0,-283"},"8":{"d":"934,-440v0,-146,-77,-228,-221,-228v-144,-1,-224,83,-224,228v0,145,80,228,224,227v143,0,221,-82,221,-227xm125,-420v0,-213,124,-325,307,-375v-162,-49,-274,-147,-274,-338v0,-285,234,-389,555,-387v181,0,318,32,412,98v94,66,141,162,141,289v0,191,-113,290,-275,338v183,50,307,161,307,375v0,324,-232,449,-585,449v-354,0,-588,-124,-588,-449xm713,-1278v-120,0,-191,66,-191,184v0,119,70,185,191,185v119,0,188,-66,188,-185v0,-119,-69,-184,-188,-184"},"9":{"d":"594,29v-149,0,-273,-23,-389,-62r0,-276v170,91,470,136,610,-9v63,-65,102,-159,113,-284v-83,61,-178,98,-312,100v-296,4,-510,-194,-510,-485v0,-327,240,-534,576,-531v415,4,612,310,612,754v0,468,-250,794,-700,793xm477,-1014v0,160,55,262,203,262v147,0,204,-102,203,-262v0,-159,-56,-262,-203,-262v-147,0,-204,103,-203,262"},":":{"d":"229,-1120r361,0r0,387r-361,0r0,-387xm229,-387r361,0r0,387r-361,0r0,-387","w":819},";":{"d":"229,-387r361,0r0,305r-248,373r-213,0r100,-373r0,-305xm229,-1120r361,0r0,387r-361,0r0,-387","w":819},"<":{"d":"1499,-973r-964,332r964,330r0,250r-1282,-463r0,-236r1282,-463r0,250","w":1716},"=":{"d":"217,-987r1282,0r0,235r-1282,0r0,-235xm217,-532r1282,0r0,237r-1282,0r0,-237","w":1716},">":{"d":"217,-973r0,-250r1282,463r0,236r-1282,463r0,-250r965,-330","w":1716},"?":{"d":"555,-1520v299,-2,492,113,500,390v7,252,-225,348,-325,498v-23,35,-22,76,-21,128r-361,0v-3,-196,51,-238,172,-356v71,-69,174,-129,174,-248v0,-99,-76,-152,-182,-149v-146,4,-262,63,-371,133r0,-314v137,-47,256,-81,414,-82xm348,-356r361,0r0,356r-361,0r0,-356","w":1188},"@":{"d":"1024,-801v-129,0,-193,119,-193,262v0,147,62,265,195,265v131,0,195,-120,195,-265v0,-145,-65,-262,-197,-262xm1903,-655v0,383,-255,586,-662,571r0,-154v-37,90,-129,150,-252,150v-237,0,-387,-200,-387,-449v0,-249,150,-450,387,-450v123,0,216,61,252,151r0,-131r209,0r0,693v169,-25,268,-177,266,-377v-1,-148,-49,-257,-117,-348v-142,-192,-457,-314,-768,-223v-293,85,-509,322,-509,679v0,338,192,554,438,659v254,108,589,29,743,-122r107,162v-146,114,-338,200,-572,200v-424,0,-706,-237,-836,-546v-91,-215,-91,-484,1,-700v131,-310,414,-550,835,-550v425,0,709,220,826,544v27,76,39,157,39,241","w":2048},"A":{"d":"1094,-272r-602,0r-95,272r-387,0r553,-1493r459,0r553,1493r-387,0xm588,-549r409,0r-204,-594","w":1585,"k":{"\u201e":-114,"\u201a":-114,"\u2019":188,"\u201d":188,"\u00dc":63,"y":73,"v":73,"Y":196,"W":92,"V":139,"U":63,"T":159,";":-38,":":-38,".":-38,",":-38}},"B":{"d":"971,-1073v0,-108,-71,-159,-185,-158r-213,0r0,316r213,0v115,0,185,-48,185,-158xm1032,-459v0,-138,-87,-194,-233,-194r-226,0r0,391r226,0v146,0,233,-57,233,-197xm1356,-1098v-1,156,-79,254,-199,299v157,44,260,176,260,371v0,323,-233,428,-590,428r-639,0r0,-1493r578,0v207,0,357,31,450,94v93,63,140,163,140,301","w":1561,"k":{"Y":112,"W":112,"V":83}},"C":{"d":"942,-250v184,-1,305,-57,430,-141r0,309v-130,67,-277,109,-461,111v-485,5,-809,-296,-809,-774v0,-479,324,-780,809,-775v184,2,332,44,461,111r0,309v-125,-84,-245,-139,-430,-141v-283,-3,-442,202,-442,496v0,294,159,497,442,495","w":1503,"k":{"\u015e":-38,"\u2019":-75,"\u201d":-75,"S":-38,"-":-47}},"D":{"d":"1196,-748v0,-302,-177,-456,-485,-454r-138,0r0,911r138,0v308,1,485,-155,485,-457xm188,-1493v292,1,727,-10,912,49v291,94,492,316,493,696v0,383,-202,607,-495,700v-186,59,-620,47,-910,48r0,-1493","w":1700,"k":{"\u201e":36,"\u201a":36,"Y":149,"-":-38}},"E":{"d":"188,-1493r1039,0r0,291r-654,0r0,278r615,0r0,291r-615,0r0,342r676,0r0,291r-1061,0r0,-1493","w":1399},"F":{"d":"188,-1493r1039,0r0,291r-654,0r0,278r615,0r0,291r-615,0r0,633r-385,0r0,-1493","w":1399,"k":{"\u201e":339,"\u201a":339,"\u2019":-38,"\u00fc":102,"\u00f6":83,"y":112,"u":102,"r":131,"o":83,"e":83,"a":120,"A":235,";":112,":":112,".":301,"-":63,",":329}},"G":{"d":"961,-250v78,0,148,-9,204,-31r0,-290r-235,0r0,-258r600,0r0,718v-176,86,-375,137,-619,140v-485,5,-809,-296,-809,-774v0,-488,332,-780,830,-775v211,2,392,42,543,111r0,309v-145,-82,-296,-139,-496,-141v-309,-3,-479,183,-479,496v0,307,161,496,461,495","w":1681,"k":{"Y":45,"T":36}},"H":{"d":"188,-1493r385,0r0,569r568,0r0,-569r385,0r0,1493r-385,0r0,-633r-568,0r0,633r-385,0r0,-1493","w":1714},"I":{"d":"188,-1493r385,0r0,1493r-385,0r0,-1493","w":762},"J":{"d":"-115,119v201,15,303,-73,303,-264r0,-1348r385,0r0,1348v1,412,-250,574,-688,555r0,-291","w":762},"K":{"d":"188,-1493r385,0r0,545r555,-545r447,0r-719,707r793,786r-482,0r-594,-588r0,588r-385,0r0,-1493","w":1587,"k":{"\u201e":-38,"\u201a":-38,"\u00fc":36,"\u00f6":36,"\u00dc":36,"\u00d6":92,"\u00c7":92,"y":131,"u":36,"o":36,"e":36,"U":36,"O":92,"C":92,"-":178}},"L":{"d":"188,-1493r385,0r0,1202r676,0r0,291r-1061,0r0,-1493","w":1305,"k":{"\u2019":471,"\u201d":491,"\u00dc":73,"\u00d6":73,"y":139,"Y":319,"W":159,"V":282,"U":73,"T":339,"O":73}},"M":{"d":"188,-1493r490,0r340,799r342,-799r489,0r0,1493r-364,0r0,-1092r-344,805r-244,0r-344,-805r0,1092r-365,0r0,-1493","w":2038},"N":{"d":"188,-1493r430,0r543,1024r0,-1024r365,0r0,1493r-430,0r-543,-1024r0,1024r-365,0r0,-1493","w":1714},"O":{"d":"1241,-745v0,-284,-111,-496,-371,-496v-258,0,-370,213,-370,496v0,283,112,495,370,495v259,0,371,-212,371,-495xm102,-745v0,-478,292,-775,768,-775v477,0,768,297,768,775v0,477,-291,774,-768,774v-476,0,-768,-297,-768,-774","w":1741,"k":{"Y":73,"X":73,"V":55,"A":55,".":45,"-":-38,",":45}},"P":{"d":"1417,-1006v0,333,-236,491,-590,488r-254,0r0,518r-385,0r0,-1493r639,0v354,-3,590,154,590,487xm1020,-1006v0,-138,-91,-208,-234,-208r-213,0r0,417r213,0v143,1,234,-71,234,-209","w":1501,"k":{"\u015f":36,"\u201e":415,"\u201a":415,"\u2019":-57,"\u201d":-38,"y":-38,"s":36,"a":55,"A":188,".":376,"-":36,",":376}},"Q":{"d":"1638,-745v-2,353,-163,595,-417,708r301,336r-367,0r-244,-272v-509,14,-809,-278,-809,-772v0,-478,292,-775,768,-775v482,0,771,291,768,775xm1241,-745v0,-284,-111,-496,-371,-496v-258,0,-370,213,-370,496v0,290,105,495,370,495v259,0,371,-212,371,-495","w":1741,"k":{"-":-38}},"R":{"d":"961,-1024v0,-146,-73,-190,-226,-190r-162,0r0,383r162,0v154,-1,226,-46,226,-193xm1346,-1081v0,216,-110,328,-287,383v139,40,198,132,268,274r209,424r-410,0r-182,-371v-67,-126,-102,-187,-262,-194r-109,0r0,565r-385,0r0,-1493r588,0v355,2,570,91,570,412","w":1577,"k":{"y":92,"Y":112,"T":92,".":-38,",":-38}},"S":{"d":"705,-1520v189,1,358,30,522,74r0,316v-138,-62,-288,-111,-461,-111v-155,0,-270,26,-270,156v0,112,83,126,206,151r164,33v166,33,284,84,354,152v70,68,105,165,105,290v0,353,-219,489,-594,488v-215,-1,-401,-44,-571,-107r0,-325v161,84,324,150,534,153v143,2,260,-40,260,-162v0,-132,-84,-143,-227,-176v-178,-41,-389,-89,-477,-186v-66,-73,-103,-164,-103,-283v2,-316,223,-466,558,-463","w":1475,"k":{"\u015e":92,"S":92}},"T":{"d":"10,-1493r1376,0r0,291r-495,0r0,1202r-385,0r0,-1202r-496,0r0,-291","w":1397,"k":{"\u015f":272,"\u201e":264,"\u201a":264,"\u00fc":225,"\u00f6":272,"\u00e7":272,"y":243,"w":225,"u":225,"s":272,"r":225,"o":272,"e":272,"c":272,"a":264,"T":-47,"A":159,";":112,":":112,".":311,"-":301,",":292}},"U":{"d":"831,29v-430,0,-642,-200,-643,-627r0,-895r385,0r0,895v2,225,53,344,258,344v206,0,259,-119,259,-344r0,-895r385,0r0,895v-1,427,-213,627,-644,627","w":1663,"k":{"A":63}},"V":{"d":"10,-1493r387,0r396,1102r395,-1102r387,0r-553,1493r-459,0","w":1585,"k":{"\u201e":188,"\u201a":225,"\u00fc":73,"\u00f6":112,"\u00d6":36,"u":73,"o":112,"i":36,"e":112,"a":112,"O":36,"A":139,";":92,":":92,".":264,"-":149,",":264}},"W":{"d":"61,-1493r369,0r258,1085r256,-1085r371,0r256,1085r258,-1085r366,0r-352,1493r-444,0r-271,-1135r-268,1135r-444,0","w":2259,"k":{"\u00f6":73,"r":36,"o":73,"e":73,"a":73,"A":92,";":63,":":63,".":167,"-":92,",":167}},"X":{"d":"1020,-762r518,762r-401,0r-349,-510r-346,510r-403,0r518,-762r-498,-731r402,0r327,481r326,-481r404,0","w":1579,"k":{"\u201e":-38,"\u201a":-38,"\u00d6":73,"\u00c7":73,"e":55,"O":73,"C":73,"-":167}},"Y":{"d":"-20,-1493r421,0r340,532r340,-532r422,0r-569,864r0,629r-385,0r0,-629","w":1483,"k":{"\u201e":301,"\u201a":376,"\u00fc":149,"\u00f6":188,"\u00d6":73,"\u00c7":73,"u":149,"o":188,"e":188,"a":188,"O":73,"C":73,"A":196,";":178,":":178,".":339,"-":301,",":339}},"Z":{"d":"115,-1493r1255,0r0,233r-801,969r824,0r0,291r-1301,0r0,-233r801,-969r-778,0r0,-291","w":1485,"k":{"-":36}},"[":{"d":"176,-1556r621,0r0,225r-281,0r0,1376r281,0r0,225r-621,0r0,-1826","w":936},"\\":{"d":"526,190r-526,-1683r221,0r527,1683r-222,0","w":748},"]":{"d":"760,270r-621,0r0,-225r281,0r0,-1376r-281,0r0,-225r621,0r0,1826","w":936},"^":{"d":"981,-1493r528,557r-241,0r-410,-301r-409,301r-242,0r528,-557r246,0","w":1716},"_":{"d":"1024,293r0,190r-1024,0r0,-190r1024,0","w":1024},"`":{"d":"377,-1638r282,376r-196,0r-369,-376r283,0","w":1024},"a":{"d":"621,-209v148,-2,256,-126,239,-295v-183,1,-412,-27,-411,150v0,95,71,146,172,145xm649,-1147v391,0,572,131,572,508r0,639r-361,0r0,-166v-89,124,-186,192,-381,195v-223,4,-391,-147,-391,-365v0,-131,46,-228,136,-289v90,-61,232,-92,425,-92r211,0v7,-161,-106,-192,-276,-192v-161,0,-290,33,-398,92r0,-273v143,-35,295,-57,463,-57","w":1382,"k":{"y":63}},"b":{"d":"530,-559v0,190,67,328,238,328v171,0,236,-138,236,-328v0,-191,-64,-328,-236,-328v-171,0,-238,139,-238,328xm901,29v-181,-1,-283,-76,-371,-191r0,162r-358,0r0,-1556r358,0r0,600v88,-115,189,-189,371,-191v292,-3,473,274,473,588v0,315,-180,590,-473,588","w":1466},"c":{"d":"733,-1147v131,1,241,24,344,62r0,292v-85,-58,-173,-97,-299,-98v-202,-2,-317,128,-317,332v0,205,115,333,317,332v125,-1,222,-40,299,-99r0,293v-102,38,-214,61,-344,62v-389,4,-645,-210,-645,-588v0,-378,257,-592,645,-588","w":1214},"d":{"d":"565,-1147v180,1,281,76,369,191r0,-600r360,0r0,1556r-360,0r0,-162v-89,117,-186,189,-369,191v-292,3,-473,-274,-473,-588v0,-315,180,-590,473,-588xm463,-559v0,190,64,328,235,328v171,0,236,-138,236,-328v0,-191,-64,-328,-236,-328v-170,0,-235,138,-235,328","w":1466},"e":{"d":"709,-1147v348,0,586,235,581,584r0,102r-837,0v17,168,123,254,309,252v187,-2,335,-59,475,-135r0,276v-152,57,-315,96,-508,97v-391,4,-641,-207,-641,-588v0,-369,245,-588,621,-588xm922,-682v2,-131,-86,-229,-215,-227v-147,1,-232,90,-250,227r465,0","w":1389},"f":{"d":"217,-1120v-19,-307,117,-440,418,-436r274,0r0,235r-198,0v-99,1,-134,27,-136,123r0,78r306,0r0,256r-306,0r0,864r-358,0r0,-864r-178,0r0,-256r178,0","w":891,"k":{"\u2019":-141,"\u201d":-86,".":112,"-":36,",":112}},"g":{"d":"594,205v259,4,357,-126,340,-395v-89,116,-187,188,-369,190v-286,3,-473,-268,-473,-573v0,-307,186,-575,473,-572v182,2,281,75,369,191r0,-166r360,0r0,1007v-2,382,-261,558,-665,555v-154,-1,-278,-24,-400,-65r0,-279v108,62,216,104,365,107xm934,-573v0,-181,-72,-314,-236,-314v-163,0,-235,134,-235,314v0,186,65,313,235,313v164,0,236,-134,236,-313","w":1466},"h":{"d":"903,-1147v272,0,395,179,395,465r0,682r-360,0r0,-520v-3,-148,8,-209,-29,-283v-22,-45,-73,-74,-139,-74v-165,0,-240,144,-240,326r0,551r-358,0r0,-1556r358,0r0,600v94,-112,195,-191,373,-191","w":1458},"i":{"d":"172,-1120r358,0r0,1120r-358,0r0,-1120xm172,-1556r358,0r0,292r-358,0r0,-292","w":702},"j":{"d":"-6,207v153,-4,178,-60,178,-227r0,-1100r358,0r0,1100v2,290,-140,462,-421,462r-177,0r0,-235r62,0xm172,-1556r358,0r0,292r-358,0r0,-292","w":702},"k":{"d":"172,-1556r358,0r0,847r412,-411r416,0r-547,514r590,606r-434,0r-437,-467r0,467r-358,0r0,-1556","w":1362,"k":{"\u00f6":55,"o":55,"e":55}},"l":{"d":"172,-1556r358,0r0,1556r-358,0r0,-1556","w":702},"m":{"d":"870,-1147v167,0,286,90,340,213v78,-120,191,-213,367,-213v271,0,395,180,395,465r0,682r-360,0r2,-651v-1,-139,-26,-226,-148,-226v-159,0,-215,146,-215,327r0,550r-360,0r0,-584v0,-124,-11,-204,-32,-240v-21,-36,-59,-53,-114,-53v-158,0,-215,145,-215,326r0,551r-360,0r0,-1120r360,0r0,164v76,-110,177,-191,340,-191","w":2134},"n":{"d":"903,-1147v272,0,395,179,395,465r0,682r-360,0r0,-522v-3,-146,7,-208,-29,-281v-22,-45,-73,-74,-139,-74v-165,0,-240,144,-240,326r0,551r-358,0r0,-1120r358,0r0,164v94,-112,195,-191,373,-191","w":1458},"o":{"d":"946,-559v0,-193,-67,-332,-241,-332v-176,0,-244,139,-244,332v0,194,68,332,244,332v174,0,241,-140,241,-332xm88,-559v0,-371,240,-588,617,-588v376,0,614,217,614,588v0,371,-238,588,-614,588v-377,0,-617,-217,-617,-588","w":1407},"p":{"d":"901,29v-181,-1,-283,-76,-371,-191r0,588r-358,0r0,-1546r358,0r0,164v88,-115,189,-189,371,-191v292,-3,473,274,473,588v0,315,-180,590,-473,588xm1004,-559v0,-191,-64,-328,-236,-328v-171,0,-238,139,-238,328v0,190,67,328,238,328v171,0,236,-138,236,-328","w":1466},"q":{"d":"934,-559v0,-191,-64,-328,-236,-328v-170,0,-235,138,-235,328v0,190,64,328,235,328v171,0,236,-138,236,-328xm565,-1145v182,1,281,75,369,191r0,-166r360,0r0,1546r-360,0r0,-588v-89,117,-186,189,-369,191v-292,3,-473,-274,-473,-588v0,-315,180,-588,473,-586","w":1466},"r":{"d":"530,-936v90,-154,237,-236,473,-203r1,324v-55,-26,-114,-43,-187,-43v-195,0,-287,136,-287,342r0,516r-358,0r0,-1120r358,0r0,184","w":1010,"k":{"\u2019":-86,"\u201d":-38,".":292,",":301}},"s":{"d":"602,-1147v161,0,298,25,445,62r0,272v-129,-54,-265,-96,-424,-96v-111,0,-201,15,-201,104v0,99,132,93,235,109v183,28,307,62,370,115v63,53,95,137,95,251v0,272,-219,359,-526,359v-171,-1,-326,-29,-473,-70r0,-272v128,63,272,104,448,104v115,0,211,-21,211,-115v0,-109,-131,-99,-245,-116v-159,-24,-271,-57,-335,-111v-64,-54,-96,-136,-96,-246v0,-268,197,-350,496,-350","w":1219},"t":{"d":"594,0v-286,-3,-389,-103,-389,-389r0,-475r-178,0r0,-256r178,0r0,-318r358,0r0,318r369,0r0,256r-369,0r0,475v3,113,36,133,154,133r184,0r0,256r-307,0","w":979},"u":{"d":"557,29v-272,0,-397,-179,-397,-465r0,-684r360,0r-2,524v3,177,-11,276,88,335v23,14,51,19,82,19v165,-2,240,-143,240,-325r0,-553r358,0r0,1120r-358,0r0,-162v-94,112,-194,191,-371,191","w":1458},"v":{"d":"31,-1120r358,0r279,774r278,-774r359,0r-441,1120r-393,0","w":1335,"k":{".":167,",":167}},"w":{"d":"72,-1120r348,0r188,772r189,-772r299,0r188,764r189,-764r348,0r-295,1120r-391,0r-189,-770r-188,770r-391,0","w":1892,"k":{".":131,",":131}},"x":{"d":"455,-573r-404,-547r379,0r229,332r232,-332r379,0r-404,545r424,575r-379,0r-252,-354r-249,354r-379,0","w":1321},"y":{"d":"25,-1120r358,0r301,760r256,-760r358,0r-471,1226v-86,214,-161,327,-415,336r-207,0r0,-235v87,0,200,4,245,-29v33,-24,59,-80,74,-135","w":1335,"k":{".":188,",":159}},"z":{"d":"117,-1120r977,0r0,250r-590,614r590,0r0,256r-1002,0r0,-250r590,-614r-565,0r0,-256","w":1192},"{":{"d":"907,-121v5,195,32,225,226,230r69,0r0,225r-217,0v-280,-1,-415,-99,-418,-369r0,-192v-3,-199,-54,-264,-250,-267r-61,0r0,-223r61,0v196,-3,250,-67,250,-266r0,-205v3,-270,138,-367,418,-368r217,0r0,225r-69,0v-193,5,-221,35,-226,229r0,166v-2,202,-43,285,-200,324v157,41,198,122,200,325r0,166","w":1458},"|":{"d":"487,-1565r0,2048r-227,0r0,-2048r227,0","w":748},"}":{"d":"891,-35v-3,270,-138,368,-418,369r-217,0r0,-225r70,0v193,-5,220,-36,225,-230r0,-166v2,-203,44,-283,201,-325v-158,-39,-199,-122,-201,-324r0,-166v-5,-193,-32,-224,-225,-229r-70,0r0,-225r217,0v280,1,415,98,418,368r0,205v3,199,54,263,250,266r61,0r0,223r-61,0v-196,3,-247,68,-250,267r0,192","w":1458},"~":{"d":"1141,-690v160,0,245,-71,358,-160r0,244v-174,156,-433,187,-675,73v-100,-47,-186,-61,-249,-61v-158,0,-250,72,-358,160r0,-244v175,-156,433,-188,675,-73v100,47,186,61,249,61","w":1716},"\u00c7":{"d":"922,168v-9,-65,-46,-109,-88,-168r139,0v59,66,107,121,113,215v13,213,-270,205,-452,160r-1,-152v94,33,278,66,289,-55xm942,-250v184,-1,305,-57,430,-141r0,309v-130,67,-277,109,-461,111v-485,5,-809,-296,-809,-774v0,-479,324,-780,809,-775v184,2,332,44,461,111r0,309v-125,-84,-245,-139,-430,-141v-283,-3,-442,202,-442,496v0,294,159,497,442,495","w":1503,"k":{"\u015e":-38,"\u2019":-75,"\u201d":-75,"S":-38,"-":-47}},"\u00d6":{"d":"531,-1899r235,0r0,246r-235,0r0,-246xm926,-1899r235,0r0,246r-235,0r0,-246xm1241,-745v0,-284,-111,-496,-371,-496v-258,0,-370,213,-370,496v0,283,112,495,370,495v259,0,371,-212,371,-495xm102,-745v0,-478,292,-775,768,-775v477,0,768,297,768,775v0,477,-291,774,-768,774v-476,0,-768,-297,-768,-774","w":1741,"k":{"Y":73,"X":73,"V":55,"A":55,".":45,"-":-38,",":45}},"\u00dc":{"d":"492,-1899r235,0r0,246r-235,0r0,-246xm887,-1899r235,0r0,246r-235,0r0,-246xm831,29v-430,0,-642,-200,-643,-627r0,-895r385,0r0,895v2,225,53,344,258,344v206,0,259,-119,259,-344r0,-895r385,0r0,895v-1,427,-213,627,-644,627","w":1663,"k":{"A":63}},"\u00e7":{"d":"735,168v-9,-65,-46,-109,-88,-168r139,0v59,66,107,121,113,215v13,213,-270,205,-452,160r-1,-152v94,33,278,66,289,-55xm733,-1147v131,1,241,24,344,62r0,292v-85,-58,-173,-97,-299,-98v-202,-2,-317,128,-317,332v0,205,115,333,317,332v125,-1,222,-40,299,-99r0,293v-102,38,-214,61,-344,62v-389,4,-645,-210,-645,-588v0,-378,257,-592,645,-588","w":1214},"\u00f6":{"d":"412,-1585r235,0r0,246r-235,0r0,-246xm807,-1585r235,0r0,246r-235,0r0,-246xm946,-559v0,-193,-67,-332,-241,-332v-176,0,-244,139,-244,332v0,194,68,332,244,332v174,0,241,-140,241,-332xm88,-559v0,-371,240,-588,617,-588v376,0,614,217,614,588v0,371,-238,588,-614,588v-377,0,-617,-217,-617,-588","w":1407},"\u00fc":{"d":"439,-1585r235,0r0,246r-235,0r0,-246xm834,-1585r235,0r0,246r-235,0r0,-246xm557,29v-272,0,-397,-179,-397,-465r0,-684r360,0r-2,524v3,177,-11,276,88,335v23,14,51,19,82,19v165,-2,240,-143,240,-325r0,-553r358,0r0,1120r-358,0r0,-162v-94,112,-194,191,-371,191","w":1458},"\u2020":{"d":"342,-1493r330,0r0,381r291,0r0,238r-291,0r0,1071r-330,0r0,-1071r-289,0r0,-238r289,0r0,-381","w":1024},"\u2022":{"d":"515,-428v-158,-63,-276,-261,-193,-473v49,-125,164,-219,333,-219v169,0,281,99,333,220v62,145,0,316,-79,394v-85,84,-251,135,-394,78","w":1309},"\u2026":{"d":"1526,-387r360,0r0,387r-360,0r0,-387xm162,-387r360,0r0,387r-360,0r0,-387xm844,-387r360,0r0,387r-360,0r0,-387","w":2048},"\u2013":{"d":"0,-690r1024,0r0,258r-1024,0r0,-258","w":1024},"\u2014":{"d":"0,-690r2048,0r0,258r-2048,0r0,-258","w":2048},"\u201c":{"d":"1057,-856r-340,0r0,-283r227,-354r213,0r-100,354r0,283xm551,-856r-340,0r0,-285r227,-352r213,0r-100,352r0,285","w":1346,"k":{"Y":-38,"J":92,"A":264}},"\u201d":{"d":"289,-1493r340,0r0,285r-228,352r-213,0r101,-352r0,-285xm795,-1493r340,0r0,287r-228,350r-213,0r101,-350r0,-287","w":1346},"\u2018":{"d":"551,-856r-340,0r0,-285r227,-352r213,0r-100,352r0,285","w":778,"k":{"Y":-75,"V":-38,"J":92,"A":235}},"\u2019":{"d":"229,-1493r340,0r0,285r-227,352r-213,0r100,-352r0,-285","w":778},"\u2039":{"d":"651,-1063r0,242r-293,221r293,221r0,242r-493,-369r0,-186","w":844},"\u203a":{"d":"193,-1063r493,371r0,186r-493,369r0,-242r292,-221r-292,-221r0,-242","w":844},"\u2021":{"d":"342,-1493r330,0r0,381r291,0r0,238r-291,0r0,452r291,0r0,238r-291,0r0,381r-330,0r0,-381r-291,0r0,-238r291,0r0,-452r-289,0r0,-238r289,0r0,-381","w":1024},"\u201a":{"d":"248,-387r340,0r0,285r-230,352r-211,0r101,-352r0,-285","w":778,"k":{"Y":358,"W":215,"V":282,"T":415}},"\u201e":{"d":"248,-387r340,0r0,285r-230,352r-211,0r101,-352r0,-285xm754,-387r340,0r0,287r-228,350r-213,0r101,-350r0,-287","w":1346,"k":{"Y":358,"W":215,"V":282,"T":415}},"\u2030":{"d":"2650,-379v0,-130,-36,-237,-147,-237v-112,0,-150,107,-150,237v0,131,37,238,150,238v111,0,148,-108,147,-238xm2101,-379v0,-248,155,-405,402,-405v247,0,399,157,399,405v0,248,-153,408,-399,408v-247,0,-402,-160,-402,-408xm614,-1114v0,-130,-38,-238,-149,-238v-112,0,-150,108,-150,238v0,131,38,240,150,240v112,0,149,-110,149,-240xm66,-1114v0,-248,152,-406,399,-406v247,0,399,158,399,406v0,248,-152,407,-399,407v-247,0,-399,-159,-399,-407xm670,29r-221,0r933,-1549r222,0xm1186,-379v0,-247,155,-405,401,-405v247,0,400,157,400,405v0,248,-153,408,-400,408v-247,0,-401,-160,-401,-408xm1735,-379v1,-130,-37,-237,-148,-237v-111,0,-149,108,-149,237v0,131,36,238,149,238v112,0,148,-107,148,-238","w":2949},"\u0131":{"d":"172,-1120r358,0r0,1120r-358,0r0,-1120","w":702},"\u011e":{"d":"1153,-1899v-21,173,-141,264,-336,264v-195,0,-315,-91,-336,-264r143,0v27,79,89,121,193,121v104,0,166,-42,193,-121r143,0xm961,-250v78,0,148,-9,204,-31r0,-290r-235,0r0,-258r600,0r0,718v-176,86,-375,137,-619,140v-485,5,-809,-296,-809,-774v0,-488,332,-780,830,-775v211,2,392,42,543,111r0,309v-145,-82,-296,-139,-496,-141v-309,-3,-479,183,-479,496v0,307,161,496,461,495","w":1681,"k":{"Y":45,"T":36}},"\u011f":{"d":"1069,-1606v-7,194,-132,297,-336,297v-204,0,-329,-103,-336,-297r143,0v14,94,84,144,193,144v109,0,179,-50,193,-144r143,0xm594,205v259,4,357,-126,340,-395v-89,116,-187,188,-369,190v-286,3,-473,-268,-473,-573v0,-307,186,-575,473,-572v182,2,281,75,369,191r0,-166r360,0r0,1007v-2,382,-261,558,-665,555v-154,-1,-278,-24,-400,-65r0,-279v108,62,216,104,365,107xm934,-573v0,-181,-72,-314,-236,-314v-163,0,-235,134,-235,314v0,186,65,313,235,313v164,0,236,-134,236,-313","w":1466},"\u0130":{"d":"219,-1899r274,0r0,246r-274,0r0,-246xm188,-1493r385,0r0,1493r-385,0r0,-1493","w":762},"\u015e":{"d":"772,168v-9,-65,-46,-109,-88,-168r139,0v59,66,107,121,113,215v13,213,-270,205,-452,160r-1,-152v94,33,278,66,289,-55xm705,-1520v189,1,358,30,522,74r0,316v-138,-62,-288,-111,-461,-111v-155,0,-270,26,-270,156v0,112,83,126,206,151r164,33v166,33,284,84,354,152v70,68,105,165,105,290v0,353,-219,489,-594,488v-215,-1,-401,-44,-571,-107r0,-325v161,84,324,150,534,153v143,2,260,-40,260,-162v0,-132,-84,-143,-227,-176v-178,-41,-389,-89,-477,-186v-66,-73,-103,-164,-103,-283v2,-316,223,-466,558,-463","w":1475,"k":{"\u015e":92,"S":92}},"\u015f":{"d":"649,168v-9,-65,-46,-109,-88,-168r139,0v59,66,107,121,113,215v13,213,-270,205,-452,160r-1,-152v94,33,278,66,289,-55xm602,-1147v161,0,298,25,445,62r0,272v-129,-54,-265,-96,-424,-96v-111,0,-201,15,-201,104v0,99,132,93,235,109v183,28,307,62,370,115v63,53,95,137,95,251v0,272,-219,359,-526,359v-171,-1,-326,-29,-473,-70r0,-272v128,63,272,104,448,104v115,0,211,-21,211,-115v0,-109,-131,-99,-245,-116v-159,-24,-271,-57,-335,-111v-64,-54,-96,-136,-96,-246v0,-268,197,-350,496,-350","w":1219},"\u20ac":{"d":"924,-233v160,0,268,-69,364,-158r0,309v-115,66,-246,111,-414,111v-373,0,-607,-203,-696,-506r-217,0r88,-195r98,0r-2,-73r2,-76r-186,0r88,-195r129,0v93,-305,320,-504,696,-504v167,0,300,45,414,111r0,309v-93,-89,-205,-157,-364,-157v-185,0,-297,97,-351,241r539,0r-86,195r-493,0v-5,42,-3,100,-1,149r429,0r-89,195r-299,0v60,147,162,244,351,244"},"\u00a0":{"w":713}}});
/*!
 * The following copyright notice may not be removed under any circumstances.
 * 
 * Copyright:
 * Copyright (c) 2003 by Bitstream, Inc. All Rights Reserved.
 * 
 * Trademark:
 * Bitstream Vera is a trademark of Bitstream, Inc.
 * 
 * Manufacturer:
 * Bitstream Inc.
 * 
 * Vendor URL:
 * http://www.bitstream.com
 */
Cufon.registerFont({"w":1303,"face":{"font-family":"Bitstream Vera Sans","font-weight":400,"font-stretch":"normal","units-per-em":"2048","panose-1":"2 11 6 3 3 8 4 2 2 4","ascent":"1556","descent":"-492","x-height":"29","bbox":"-106 -1901 2636 483","underline-thickness":"143","underline-position":"-142","unicode-range":"U+0020-U+20AC"},"glyphs":{" ":{"w":651},"!":{"d":"309,-254r203,0r0,254r-203,0r0,-254xm309,-1493r203,0r0,655r-20,357r-162,0r-21,-357r0,-655","w":821},"\"":{"d":"367,-1493r0,555r-170,0r0,-555r170,0xm745,-1493r0,555r-170,0r0,-555r170,0","w":942},"#":{"d":"1047,-901r-291,0r-84,334r293,0xm897,-1470r-104,415r292,0r105,-415r160,0r-103,415r312,0r0,154r-351,0r-82,334r318,0r0,153r-357,0r-104,414r-160,0r103,-414r-293,0r-103,414r-161,0r104,-414r-315,0r0,-153r352,0r84,-334r-322,0r0,-154r361,0r102,-415r162,0","w":1716},"$":{"d":"1133,-381v0,250,-185,363,-441,379r0,303r-100,0r-1,-301v-161,-4,-295,-38,-421,-92r0,-180v120,75,248,126,422,130r0,-456v-147,-24,-255,-65,-322,-122v-67,-57,-100,-136,-100,-236v0,-240,177,-350,422,-365r0,-235r100,0r0,232v130,6,244,28,350,62r0,175v-101,-51,-214,-85,-350,-92r0,427v151,23,263,65,334,125v71,60,107,142,107,246xm592,-1180v-136,15,-238,73,-238,207v0,140,97,177,238,203r0,-410xm692,-145v145,-20,256,-75,256,-217v0,-145,-109,-187,-256,-216r0,433"},"%":{"d":"1673,-377v0,-151,-53,-280,-184,-280v-133,0,-186,128,-186,280v0,151,54,279,186,279v130,0,184,-130,184,-279xm1143,-377v0,-234,124,-407,346,-407v220,-1,344,175,344,407v0,233,-124,406,-344,406v-222,1,-346,-173,-346,-406xm643,-1114v0,-149,-55,-279,-186,-279v-131,0,-185,129,-185,279v0,153,52,280,185,280v133,0,186,-128,186,-280xm1360,-1520r160,0r-934,1549r-160,0xm113,-1114v0,-232,124,-406,344,-406v220,-1,346,173,346,406v0,235,-123,407,-346,407v-222,0,-344,-173,-344,-407","w":1946},"&":{"d":"322,-473v-6,196,170,344,372,340v146,-3,248,-52,334,-127r-530,-543v-99,91,-171,175,-176,330xm725,-1362v-170,-8,-296,151,-207,302v20,34,60,82,121,145r508,520v73,-110,122,-241,131,-406r186,0v-22,208,-101,370,-209,516r279,285r-252,0r-143,-147v-123,105,-259,172,-463,176v-304,6,-553,-197,-547,-490v5,-215,121,-342,268,-452v-53,-70,-96,-145,-98,-248v-3,-222,175,-363,406,-359v129,2,233,30,333,72r0,182v-96,-51,-192,-90,-313,-96","w":1597},"'":{"d":"367,-1493r0,555r-170,0r0,-555r170,0","w":563},"(":{"d":"176,-643v0,-371,131,-646,299,-911r160,0v-154,267,-264,539,-264,911v0,368,111,649,264,913r-160,0v-168,-266,-299,-539,-299,-913","w":799},")":{"d":"428,-643v0,-369,-112,-646,-264,-911r160,0v168,267,299,538,299,911v0,371,-132,649,-299,913r-160,0v153,-266,264,-542,264,-913","w":799},"*":{"d":"963,-1247r-359,194r359,195r-58,98r-336,-203r0,377r-114,0r0,-377r-336,203r-58,-98r359,-195r-359,-194r58,-99r336,203r0,-377r114,0r0,377r336,-203","w":1024},"+":{"d":"942,-1284r0,557r557,0r0,170r-557,0r0,557r-168,0r0,-557r-557,0r0,-170r557,0r0,-557r168,0","w":1716},",":{"d":"240,-254r211,0r0,172r-164,320r-129,0r82,-320r0,-172","w":651},"-":{"d":"100,-643r539,0r0,164r-539,0r0,-164","w":739,"k":{"\u011e":-75,"\u00f6":-38,"\u00d6":-57,"y":36,"v":55,"o":-38,"Y":243,"X":102,"W":83,"V":120,"T":188,"Q":-75,"O":-57,"J":-114,"G":-75,"B":73,"A":45}},".":{"d":"219,-254r211,0r0,254r-211,0r0,-254","w":651},"\/":{"d":"520,-1493r170,0r-520,1683r-170,0","w":690},"0":{"d":"651,-1360v-104,0,-179,54,-235,154v-101,180,-101,743,0,922v56,100,131,153,235,153v105,0,179,-53,235,-153v101,-180,101,-743,0,-922v-56,-100,-130,-154,-235,-154xm651,-1520v167,0,290,69,383,198v172,237,172,916,0,1152v-93,129,-216,199,-383,199v-167,0,-290,-70,-383,-199v-172,-237,-171,-916,0,-1152v93,-129,216,-198,383,-198"},"1":{"d":"254,-170r330,0r0,-1139r-359,72r0,-184r357,-72r202,0r0,1323r330,0r0,170r-860,0r0,-170"},"2":{"d":"582,-1520v288,-6,513,154,508,426v-3,173,-63,245,-160,369v-16,20,-70,75,-159,167r-378,388r705,0r0,170r-948,0r0,-170r314,-320v132,-134,216,-219,249,-258v99,-117,167,-178,174,-333v8,-162,-132,-273,-301,-269v-168,4,-295,61,-426,133r0,-204v134,-53,265,-96,422,-99"},"3":{"d":"1104,-1133v0,182,-115,290,-273,328v179,36,308,167,308,371v0,318,-242,466,-584,463v-148,-1,-276,-31,-399,-74r0,-195v104,61,237,98,393,99v230,1,389,-83,389,-293v0,-188,-148,-284,-350,-281r-174,0r0,-166r182,0v180,1,307,-66,307,-231v0,-168,-132,-239,-315,-238v-143,2,-261,32,-387,74r0,-180v131,-36,258,-62,405,-64v279,-4,498,130,498,387"},"4":{"d":"774,-1317r-510,797r510,0r0,-797xm721,-1493r254,0r0,973r213,0r0,168r-213,0r0,352r-201,0r0,-352r-674,0r0,-195"},"5":{"d":"547,-817v-127,1,-228,30,-326,74r0,-750r793,0r0,170r-608,0r0,366v53,-18,110,-30,176,-30v322,-4,542,192,542,508v0,333,-227,512,-573,508v-145,-1,-270,-26,-393,-64r0,-203v110,60,230,95,389,97v220,2,375,-125,375,-338v0,-213,-155,-341,-375,-338"},"6":{"d":"971,-479v0,-202,-104,-348,-295,-348v-190,0,-295,147,-295,348v0,201,105,348,295,348v190,0,295,-148,295,-348xm762,-1520v120,0,217,25,315,60r0,184v-89,-42,-189,-74,-307,-74v-303,0,-408,221,-426,543v70,-104,184,-178,344,-180v301,-3,486,203,486,508v0,301,-199,508,-498,508v-173,0,-305,-67,-396,-199v-91,-132,-137,-324,-137,-575v0,-433,216,-775,619,-775"},"7":{"d":"168,-1493r960,0r0,86r-542,1407r-211,0r510,-1323r-717,0r0,-170"},"8":{"d":"961,-420v0,-183,-123,-289,-310,-289v-186,0,-309,107,-309,289v0,182,123,289,309,289v186,0,310,-108,310,-289xm139,-420v0,-205,132,-336,310,-375v-159,-37,-275,-154,-275,-338v0,-254,205,-387,477,-387v274,0,477,132,477,387v0,184,-116,301,-274,338v179,39,309,169,309,375v0,301,-199,449,-512,449v-314,0,-512,-148,-512,-449xm651,-1360v-166,0,-276,86,-276,246v0,160,110,246,276,246v165,0,277,-86,277,-246v1,-159,-112,-246,-277,-246"},"9":{"d":"541,29v-119,0,-218,-25,-316,-60r0,-184v89,42,190,74,307,74v304,0,408,-220,426,-543v-69,104,-184,176,-344,178v-300,2,-485,-201,-485,-506v0,-301,199,-508,498,-508v173,0,304,66,395,198v91,132,137,325,137,577v0,432,-215,774,-618,774xm332,-1012v0,202,104,348,295,348v190,0,295,-147,295,-348v0,-201,-105,-348,-295,-348v-190,0,-295,148,-295,348"},":":{"d":"240,-254r211,0r0,254r-211,0r0,-254xm240,-1059r211,0r0,254r-211,0r0,-254","w":690},";":{"d":"240,-1059r211,0r0,254r-211,0r0,-254xm240,-254r211,0r0,172r-164,320r-129,0r82,-320r0,-172","w":690},"<":{"d":"1499,-1008r-1032,367r1032,365r0,182r-1282,-465r0,-166r1282,-465r0,182","w":1716},"=":{"d":"217,-930r1282,0r0,168r-1282,0r0,-168xm217,-522r1282,0r0,170r-1282,0r0,-170","w":1716},">":{"d":"217,-1008r0,-182r1282,465r0,166r-1282,465r0,-182r1030,-365","w":1716},"?":{"d":"391,-254r203,0r0,254r-203,0r0,-254xm537,-1520v230,-4,409,133,407,353v-2,222,-210,322,-316,459v-51,66,-36,191,-40,307r-191,0v1,-113,-5,-244,28,-320v48,-109,230,-230,291,-340v84,-152,-44,-304,-214,-295v-142,8,-251,66,-355,137r0,-188v111,-67,229,-110,390,-113","w":1087},"@":{"d":"1026,-842v-168,0,-264,129,-264,305v0,180,94,306,266,306v171,1,264,-128,264,-306v0,-176,-97,-305,-266,-305xm1610,156v-146,114,-338,200,-572,200v-424,0,-706,-237,-836,-546v-91,-215,-91,-484,1,-700v135,-315,418,-552,850,-552v412,0,699,228,813,547v84,236,34,512,-120,653v-108,99,-252,154,-439,158r0,-154v-74,94,-164,148,-318,150v-237,2,-387,-200,-387,-449v0,-249,150,-452,387,-450v152,1,246,59,318,151r0,-131r143,0r0,736v196,-28,313,-192,311,-422v-3,-300,-178,-473,-381,-575v-238,-119,-588,-66,-770,59v-184,126,-334,341,-334,626v0,360,203,592,467,701v91,38,190,55,295,55v196,0,361,-73,482,-168","w":2048},"A":{"d":"700,-1294r-274,743r549,0xm586,-1493r229,0r569,1493r-210,0r-136,-383r-673,0r-136,383r-213,0","w":1401,"k":{"\u011e":36,"\u201e":-47,"\u201d":253,"\u201c":264,"\u00f6":36,"\u00e7":36,"\u00d6":36,"\u00c7":36,"y":139,"w":83,"v":120,"t":36,"q":36,"o":36,"f":73,"e":36,"d":36,"c":36,"Y":159,"W":112,"V":131,"T":159,"Q":36,"O":36,"G":36,"C":36,"A":-57,":":36,".":36,"-":45}},"B":{"d":"1047,-440v0,-197,-113,-273,-320,-273r-324,0r0,547r324,0v206,0,320,-78,320,-274xm995,-1102v0,-166,-113,-225,-293,-225r-299,0r0,450r299,0v181,0,293,-58,293,-225xm1260,-418v0,287,-215,418,-523,418r-536,0r0,-1493r516,0v281,-2,479,111,481,369v2,185,-90,294,-252,319v186,38,314,173,314,387","w":1405,"k":{"\u015e":36,"\u011e":36,"\u201e":83,"\u201d":112,"\u201c":112,"\u00d6":36,"\u00c7":36,"Y":112,"W":73,"V":63,"S":36,"O":36,"G":36,"C":36}},"C":{"d":"844,-1520v198,1,349,56,475,142r0,213v-119,-111,-258,-189,-463,-189v-357,0,-528,235,-528,609v0,373,171,608,528,608v204,0,345,-79,463,-189r0,211v-128,87,-277,142,-475,144v-456,4,-729,-310,-729,-774v0,-466,272,-778,729,-775","w":1430,"k":{"\u201d":-38,"Y":36}},"D":{"d":"1243,-748v0,-406,-186,-577,-596,-579r-244,0r0,1161r244,0v411,-2,596,-174,596,-582xm1456,-748v0,537,-284,747,-840,748r-415,0r0,-1493r415,0v557,1,840,208,840,745","w":1577,"k":{"\u201e":188,"\u201d":55,"\u201c":45,"Y":112,"V":36,"A":36}},"E":{"d":"201,-1493r944,0r0,170r-742,0r0,442r711,0r0,170r-711,0r0,541r760,0r0,170r-962,0r0,-1493","w":1294},"F":{"d":"201,-1493r858,0r0,170r-656,0r0,440r592,0r0,170r-592,0r0,713r-202,0r0,-1493","w":1178,"k":{"\u015e":36,"\u201e":376,"\u201c":45,"\u00fc":112,"\u00f6":73,"y":188,"u":112,"r":149,"o":73,"i":149,"e":112,"a":188,"T":36,"S":36,"A":188,":":159,".":329}},"G":{"d":"877,-137v143,0,252,-24,342,-76r0,-401r-330,0r0,-166r530,0r0,641v-144,103,-327,167,-559,168v-469,3,-745,-298,-745,-774v0,-477,275,-778,745,-775v211,1,384,55,520,142r0,215v-131,-111,-286,-191,-503,-191v-378,0,-549,219,-549,609v0,389,171,607,549,608","w":1587,"k":{"\u201e":55,"\u201d":45,"\u201c":45,"Y":102,"T":73}},"H":{"d":"201,-1493r202,0r0,612r734,0r0,-612r202,0r0,1493r-202,0r0,-711r-734,0r0,711r-202,0r0,-1493","w":1540,"k":{"\u201e":73,"\u201d":63,"\u201c":73,".":36}},"I":{"d":"201,-1493r202,0r0,1493r-202,0r0,-1493","w":604},"J":{"d":"-43,240v206,-7,244,-112,244,-344r0,-1389r202,0r0,1389v3,371,-136,532,-509,514r0,-170r63,0","w":604,"k":{"\u201e":112,"\u201d":63,"\u201c":73,"A":36,"-":73}},"K":{"d":"201,-1493r202,0r0,631r670,-631r260,0r-741,696r794,797r-266,0r-717,-719r0,719r-202,0r0,-1493","w":1343,"k":{"\u201d":63,"\u201c":63,"\u00fc":102,"\u00f6":102,"\u00dc":55,"\u00d6":112,"\u00c7":112,"y":149,"u":102,"o":102,"e":102,"a":36,"Y":73,"W":73,"U":55,"T":159,"O":112,"C":112,"A":36,"-":215}},"L":{"d":"201,-1493r202,0r0,1323r727,0r0,170r-929,0r0,-1493","w":1141,"k":{"\u201d":538,"\u201c":415,"\u00fc":36,"\u00f6":36,"\u00dc":102,"\u00d6":73,"y":188,"u":36,"o":36,"e":36,"Y":272,"W":188,"V":225,"U":102,"T":282,"O":73,"A":-47,"-":36}},"M":{"d":"201,-1493r301,0r381,1016r383,-1016r301,0r0,1493r-197,0r0,-1311r-385,1024r-203,0r-385,-1024r0,1311r-196,0r0,-1493","w":1767},"N":{"d":"201,-1493r272,0r662,1249r0,-1249r196,0r0,1493r-272,0r-662,-1249r0,1249r-196,0r0,-1493","w":1532},"O":{"d":"1284,-745v0,-344,-160,-611,-477,-611v-316,0,-479,268,-479,611v0,343,162,610,479,610v316,0,477,-268,477,-610xm115,-745v0,-448,260,-775,692,-775v430,0,690,328,690,775v0,447,-260,774,-690,774v-431,0,-692,-326,-692,-774","w":1612,"k":{"\u201e":188,"\u201d":36,"\u201c":45,"Y":112,"X":131,"V":36,"A":36,":":36,".":83,"-":-57}},"P":{"d":"952,-1047v0,-181,-111,-280,-295,-280r-254,0r0,561r254,0v184,1,295,-99,295,-281xm1165,-1047v0,307,-188,448,-508,447r-254,0r0,600r-202,0r0,-1493r456,0v319,-2,508,140,508,446","w":1235,"k":{"\u015f":36,"\u201e":329,"\u201d":-38,"\u201c":-38,"\u00fc":36,"\u00f6":73,"u":36,"s":36,"r":36,"o":73,"n":36,"i":45,"e":73,"a":92,"Y":45,"A":131,".":319,"-":45}},"Q":{"d":"1284,-745v0,-344,-160,-611,-477,-611v-316,0,-479,268,-479,611v0,343,162,610,479,610v316,0,477,-268,477,-610xm1497,-745v-4,357,-153,608,-407,718r266,291r-244,0r-221,-239v-491,45,-776,-296,-776,-770v0,-448,260,-775,692,-775v430,0,694,328,690,775","w":1612,"k":{"\u201e":131,"\u201d":36,"\u201c":45,"-":-57}},"R":{"d":"1165,-1063v0,196,-97,319,-256,363v118,49,183,159,250,292r205,408r-217,0r-191,-383v-49,-100,-99,-165,-144,-199v-86,-66,-260,-46,-409,-49r0,631r-202,0r0,-1493r456,0v323,-1,508,124,508,430xm952,-1063v0,-181,-108,-265,-295,-264r-254,0r0,530r254,0v187,1,295,-85,295,-266","w":1423,"k":{"\u201e":36,"\u201d":131,"\u201c":149,"\u00fc":92,"\u00f6":92,"\u00c7":102,"y":112,"u":92,"o":92,"e":92,"a":45,"Y":131,"W":83,"V":112,"T":149,"C":102,"A":83,":":63,".":73,"-":83}},"S":{"d":"659,-1520v162,2,303,31,437,76r0,197v-129,-61,-252,-107,-414,-109v-196,-3,-344,70,-344,246v0,66,22,114,60,150v51,48,232,83,347,106v266,52,441,161,441,442v0,316,-230,443,-572,441v-173,-1,-329,-42,-473,-95r0,-208v140,78,284,137,473,139v207,3,358,-75,361,-262v3,-224,-209,-249,-412,-289v-151,-30,-260,-77,-327,-141v-67,-64,-101,-153,-101,-267v1,-281,223,-430,524,-426","w":1300,"k":{"A":-38}},"T":{"d":"-6,-1493r1263,0r0,170r-530,0r0,1323r-203,0r0,-1323r-530,0r0,-170","w":1251,"k":{"\u015f":339,"\u201e":264,"\u201d":45,"\u00fc":311,"\u00f6":348,"\u00e7":348,"\u00c7":120,"y":319,"w":339,"u":311,"s":339,"r":301,"o":348,"i":63,"e":348,"c":348,"a":339,"T":36,"C":120,"A":159,":":225,".":243,"-":188}},"U":{"d":"750,29v-381,0,-573,-205,-572,-590r0,-932r203,0r0,907v2,301,87,451,369,451v281,0,368,-151,368,-451r0,-907r203,0r0,932v1,384,-191,590,-571,590","w":1499,"k":{"Z":36}},"V":{"d":"586,0r-570,-1493r211,0r473,1257r474,-1257r210,0r-569,1493r-229,0","w":1401,"k":{"\u201e":282,"\u00fc":139,"\u00f6":159,"\u00d6":36,"y":55,"u":139,"o":159,"i":45,"e":159,"a":159,"O":36,"A":131,":":167,".":264,"-":120}},"W":{"d":"68,-1493r204,0r314,1262r313,-1262r227,0r314,1262r313,-1262r205,0r-375,1493r-254,0r-315,-1296r-318,1296r-254,0","w":2025,"k":{"\u201e":264,"\u201c":36,"\u00fc":73,"\u00f6":120,"y":36,"u":73,"r":92,"o":120,"i":45,"e":120,"a":131,"A":112,":":120,".":235,"-":83}},"X":{"d":"129,-1493r217,0r371,555r373,-555r217,0r-480,717r512,776r-217,0r-420,-635r-423,635r-218,0r533,-797","w":1403,"k":{"\u201e":45,"\u201d":83,"\u201c":159,"\u00d6":131,"\u00c7":149,"e":92,"T":36,"O":131,"C":149,"-":102}},"Y":{"d":"-4,-1493r217,0r414,614r411,-614r217,0r-528,782r0,711r-203,0r0,-711","w":1251,"k":{"\u201e":264,"\u201d":36,"\u201c":112,"\u00fc":235,"\u00f6":272,"\u00d6":112,"\u00c7":112,"u":235,"o":272,"i":73,"e":272,"a":282,"O":112,"C":112,"A":159,":":272,".":415,"-":243}},"Z":{"d":"115,-1493r1173,0r0,154r-944,1169r967,0r0,170r-1219,0r0,-154r944,-1169r-921,0r0,-170","w":1403,"k":{"\u201e":36,"\u201d":36,"\u201c":36,"-":36}},"[":{"d":"176,-1556r424,0r0,143r-240,0r0,1540r240,0r0,143r-424,0r0,-1826","w":799},"\\":{"d":"170,-1493r520,1683r-170,0r-520,-1683r170,0","w":690},"]":{"d":"623,-1556r0,1826r-424,0r0,-143r239,0r0,-1540r-239,0r0,-143r424,0","w":799},"^":{"d":"956,-1493r543,557r-201,0r-440,-395r-440,395r-201,0r543,-557r196,0","w":1716},"_":{"d":"1044,340r0,143r-1064,0r0,-143r1064,0","w":1024},"`":{"d":"367,-1638r282,374r-153,0r-326,-374r197,0","w":1024},"a":{"d":"547,-125v226,-2,353,-187,338,-438v-169,-2,-416,-1,-492,51v-55,37,-86,92,-86,174v-1,135,100,214,240,213xm586,-1147v330,0,483,173,483,508r0,639r-184,0r0,-170v-79,128,-191,197,-387,199v-222,3,-378,-137,-375,-355v4,-278,200,-382,504,-381r258,0v7,-194,-124,-285,-318,-284v-144,1,-262,37,-362,92r0,-170v117,-45,237,-78,381,-78","w":1255},"b":{"d":"684,-125v216,0,313,-194,313,-434v0,-241,-96,-434,-313,-434v-216,0,-313,194,-313,434v0,241,96,434,313,434xm729,29v-180,0,-287,-74,-358,-197r0,168r-185,0r0,-1556r185,0r0,606v71,-123,177,-197,358,-197v292,0,459,270,459,588v0,319,-166,588,-459,588","w":1300},"c":{"d":"676,-1147v126,1,231,27,323,70r0,172v-91,-50,-189,-85,-315,-86v-248,-1,-377,173,-377,432v0,259,129,432,377,432v126,0,224,-36,315,-86r0,170v-96,45,-201,72,-335,72v-341,3,-551,-240,-551,-588v0,-356,212,-591,563,-588","w":1126},"d":{"d":"571,-1147v181,0,288,74,359,197r0,-606r184,0r0,1556r-184,0r0,-168v-72,123,-177,197,-359,197v-291,0,-458,-271,-458,-588v0,-318,166,-588,458,-588xm616,-993v-216,0,-313,194,-313,434v0,241,96,434,313,434v216,0,314,-194,314,-434v0,-241,-97,-434,-314,-434","w":1300},"e":{"d":"662,-1147v308,0,494,223,489,541r0,90r-846,0v14,244,148,389,400,389v162,0,286,-42,403,-104r0,174v-120,51,-255,84,-414,86v-353,3,-581,-227,-581,-578v0,-352,207,-598,549,-598xm967,-660v1,-191,-117,-331,-303,-331v-212,0,-337,131,-353,332","w":1260,"k":{"x":36}},"f":{"d":"223,-1198v1,-252,111,-357,363,-358r174,0r0,153r-176,0v-136,2,-174,46,-176,184r0,99r303,0r0,143r-303,0r0,977r-185,0r0,-977r-176,0r0,-143r176,0r0,-78","w":721,"k":{"\u201e":235,"\u201c":-65,"y":36,"w":36,"t":36,":":73,".":149,"-":112}},"g":{"d":"616,-154v218,0,314,-180,314,-419v0,-241,-95,-420,-314,-420v-217,0,-313,181,-313,420v0,239,96,419,313,419xm571,-1147v180,0,289,75,359,197r0,-170r184,0r0,981v0,371,-155,563,-516,565v-137,0,-247,-21,-350,-59r0,-179v95,51,191,86,321,86v246,0,361,-130,361,-380r0,-91v-70,122,-178,197,-359,197v-293,0,-458,-258,-458,-573v0,-317,164,-574,458,-574","w":1300},"h":{"d":"733,-1147v274,0,391,181,391,471r0,676r-184,0r0,-670v0,-195,-67,-315,-248,-317v-203,-2,-321,145,-321,354r0,633r-185,0r0,-1556r185,0r0,610v79,-120,183,-201,362,-201","w":1298},"i":{"d":"193,-1120r184,0r0,1120r-184,0r0,-1120xm193,-1556r184,0r0,233r-184,0r0,-233","w":569},"j":{"d":"12,270v164,-6,181,-66,181,-250r0,-1140r184,0r0,1140v3,298,-113,422,-414,406r0,-156r49,0xm193,-1556r184,0r0,233r-184,0r0,-233","w":569},"k":{"d":"186,-1556r185,0r0,919r549,-483r235,0r-594,524r619,596r-240,0r-569,-547r0,547r-185,0r0,-1556","w":1186,"k":{"\u00fc":63,"\u00f6":73,"y":73,"u":63,"o":73,"e":73,"a":36}},"l":{"d":"193,-1556r184,0r0,1556r-184,0r0,-1556","w":569},"m":{"d":"731,-1147v178,0,285,99,334,242v82,-146,189,-242,391,-242v253,0,365,196,365,471r0,676r-185,0r0,-670v0,-194,-56,-315,-231,-317v-198,-3,-309,148,-309,354r0,633r-185,0r0,-670v-1,-196,-55,-315,-233,-317v-195,-3,-307,150,-307,354r0,633r-185,0r0,-1120r185,0r0,174v77,-124,177,-201,360,-201","w":1995},"n":{"d":"733,-1147v274,0,391,181,391,471r0,676r-184,0r0,-670v0,-195,-67,-315,-248,-317v-203,-2,-321,145,-321,354r0,633r-185,0r0,-1120r185,0r0,174v79,-120,183,-201,362,-201","w":1298,"k":{"\u201e":92,"\u201d":112,"\u201c":149}},"o":{"d":"946,-559v0,-238,-103,-432,-319,-432v-217,0,-320,193,-320,432v0,241,101,432,320,432v215,0,319,-194,319,-432xm113,-559v0,-349,180,-588,514,-588v332,0,514,240,514,588v0,347,-182,588,-514,588v-333,0,-514,-241,-514,-588","w":1253,"k":{"\u201e":131,"\u201d":73,"\u201c":149,"x":63,".":36,"-":-38}},"p":{"d":"729,29v-180,0,-287,-74,-358,-197r0,594r-185,0r0,-1546r185,0r0,170v71,-123,177,-197,358,-197v292,0,459,270,459,588v0,319,-166,588,-459,588xm684,-125v216,0,313,-194,313,-434v0,-241,-96,-434,-313,-434v-216,0,-313,194,-313,434v0,241,96,434,313,434","w":1300},"q":{"d":"616,-993v-216,0,-313,194,-313,434v0,241,96,434,313,434v216,0,314,-194,314,-434v0,-241,-97,-434,-314,-434xm571,-1147v181,0,288,74,359,197r0,-170r184,0r0,1546r-184,0r0,-594v-72,123,-177,197,-359,197v-291,0,-458,-271,-458,-588v0,-318,166,-588,458,-588","w":1300},"r":{"d":"371,-946v77,-149,248,-228,470,-191r1,189v-40,-23,-87,-35,-148,-35v-221,1,-323,158,-323,393r0,590r-185,0r0,-1120r185,0r0,174","w":842,"k":{"\u011f":36,"\u201e":311,"\u201d":-86,"\u00f6":45,"\u00e7":45,"x":55,"r":36,"q":36,"o":45,"n":36,"m":36,"h":36,"g":36,"e":45,"d":36,"c":45,":":36,".":188,"-":131}},"s":{"d":"549,-1147v138,1,258,21,358,60r0,174v-95,-49,-202,-80,-336,-80v-156,0,-274,35,-274,168v0,43,18,75,49,101v34,28,167,64,260,83v131,27,223,68,278,119v55,51,83,122,83,213v0,230,-207,342,-463,338v-145,-1,-269,-30,-393,-70r0,-190v118,61,240,104,397,106v148,2,270,-43,270,-170v0,-50,-19,-86,-50,-115v-32,-30,-184,-70,-286,-92v-197,-44,-323,-108,-323,-315v0,-230,180,-332,430,-330","w":1067},"t":{"d":"565,0v-287,-4,-375,-83,-375,-369r0,-608r-135,0r0,-143r135,0r0,-318r185,0r0,318r379,0r0,143r-379,0r0,608v4,177,22,215,190,215r189,0r0,154r-189,0","w":803},"u":{"d":"567,29v-273,0,-393,-182,-393,-471r0,-678r184,0r0,671v0,195,67,316,248,318v203,2,322,-145,322,-354r0,-635r184,0r0,1120r-184,0r0,-172v-80,121,-181,201,-361,201","w":1298},"v":{"d":"61,-1120r195,0r350,940r350,-940r195,0r-420,1120r-250,0","w":1212,"k":{"\u201e":272,"\u201d":36,":":112,".":159,"-":55}},"w":{"d":"86,-1120r184,0r230,874r229,-874r217,0r230,874r229,-874r184,0r-293,1120r-217,0r-241,-918r-242,918r-217,0","w":1675,"k":{"\u201e":215,":":112,".":188}},"x":{"d":"1124,-1120r-405,545r426,575r-217,0r-326,-440r-326,440r-217,0r435,-586r-398,-534r217,0r297,399r297,-399r217,0","w":1212,"k":{"\u00f6":63,"\u00e7":36,"o":63,"e":63,"c":36}},"y":{"d":"659,104v-52,133,-104,219,-152,261v-75,67,-206,63,-345,61r0,-154v87,0,182,8,226,-36v39,-25,95,-173,126,-254r-453,-1102r195,0r350,876r350,-876r195,0","w":1212,"k":{"\u201e":301,":":149,".":292,"-":36}},"z":{"d":"113,-1120r874,0r0,168r-692,805r692,0r0,147r-899,0r0,-168r692,-805r-667,0r0,-147","w":1075},"{":{"d":"752,-39v5,193,34,224,227,229r68,0r0,144r-62,0v-325,-7,-411,-55,-418,-369r0,-239v-3,-200,-53,-264,-250,-267r-61,0r0,-143r61,0v197,-3,250,-65,250,-264r0,-240v7,-314,93,-361,418,-368r62,0r0,143r-68,0v-193,5,-227,36,-227,229r0,248v-2,202,-44,285,-201,324v157,41,201,122,201,325r0,248"},"|":{"d":"430,-1565r0,2048r-170,0r0,-2048r170,0","w":690},"}":{"d":"735,-35v-7,314,-91,362,-416,369r-63,0r0,-144r70,0v193,-5,225,-35,225,-229r0,-248v2,-203,44,-283,201,-325v-158,-39,-201,-122,-201,-324r0,-248v-5,-193,-32,-224,-225,-229r-70,0r0,-143r63,0v325,7,409,53,416,368r0,240v3,198,54,261,250,264r62,0r0,143r-62,0v-197,3,-250,67,-250,267r0,239"},"~":{"d":"1141,-657v159,-7,245,-72,358,-160r0,178v-119,87,-210,139,-381,147v-150,7,-404,-141,-543,-135v-158,7,-250,72,-358,160r0,-178v173,-145,405,-194,653,-82v94,42,209,73,271,70","w":1716},"\u00c7":{"d":"866,178v-5,-71,-45,-117,-88,-178r119,0v56,66,109,121,109,215v0,131,-95,181,-238,180v-66,0,-122,-9,-176,-24r0,-131v78,41,282,64,274,-62xm844,-1520v198,1,349,56,475,142r0,213v-119,-111,-258,-189,-463,-189v-357,0,-528,235,-528,609v0,373,171,608,528,608v204,0,345,-79,463,-189r0,211v-128,87,-277,142,-475,144v-456,4,-729,-310,-729,-774v0,-466,272,-778,729,-775","w":1430,"k":{"\u201d":-38,"Y":36}},"\u00d6":{"d":"901,-1870r203,0r0,203r-203,0r0,-203xm510,-1870r203,0r0,203r-203,0r0,-203xm1284,-745v0,-344,-160,-611,-477,-611v-316,0,-479,268,-479,611v0,343,162,610,479,610v316,0,477,-268,477,-610xm115,-745v0,-448,260,-775,692,-775v430,0,690,328,690,775v0,447,-260,774,-690,774v-431,0,-692,-326,-692,-774","w":1612,"k":{"\u201e":188,"\u201d":36,"\u201c":45,"Y":112,"X":131,"V":36,"A":36,":":36,".":83,"-":-57}},"\u00dc":{"d":"844,-1870r203,0r0,203r-203,0r0,-203xm453,-1870r203,0r0,203r-203,0r0,-203xm750,29v-381,0,-573,-205,-572,-590r0,-932r203,0r0,907v2,301,87,451,369,451v281,0,368,-151,368,-451r0,-907r203,0r0,932v1,384,-191,590,-571,590","w":1499,"k":{"Z":36}},"\u00e7":{"d":"708,178v-5,-71,-45,-117,-88,-178r119,0v56,66,109,121,109,215v0,131,-95,181,-238,180v-66,0,-122,-9,-176,-24r0,-131v78,41,282,64,274,-62xm676,-1147v126,1,231,27,323,70r0,172v-91,-50,-189,-85,-315,-86v-248,-1,-377,173,-377,432v0,259,129,432,377,432v126,0,224,-36,315,-86r0,170v-96,45,-201,72,-335,72v-341,3,-551,-240,-551,-588v0,-356,212,-591,563,-588","w":1126},"\u00f6":{"d":"721,-1552r203,0r0,202r-203,0r0,-202xm330,-1552r203,0r0,202r-203,0r0,-202xm946,-559v0,-238,-103,-432,-319,-432v-217,0,-320,193,-320,432v0,241,101,432,320,432v215,0,319,-194,319,-432xm113,-559v0,-349,180,-588,514,-588v332,0,514,240,514,588v0,347,-182,588,-514,588v-333,0,-514,-241,-514,-588","w":1253,"k":{"\u201e":131,"\u201d":73,"\u201c":149,"x":63,".":36,"-":-38}},"\u00fc":{"d":"729,-1552r203,0r0,202r-203,0r0,-202xm338,-1552r203,0r0,202r-203,0r0,-202xm567,29v-273,0,-393,-182,-393,-471r0,-678r184,0r0,671v0,195,67,316,248,318v203,2,322,-145,322,-354r0,-635r184,0r0,1120r-184,0r0,-172v-80,121,-181,201,-361,201","w":1298},"\u2020":{"d":"424,-1493r176,0r0,420r367,0r0,153r-367,0r0,1117r-176,0r0,-1117r-367,0r0,-153r367,0r0,-420","w":1024},"\u2022":{"d":"604,-465v-163,0,-297,-134,-297,-297v0,-162,136,-295,299,-295v161,0,295,134,295,295v0,163,-134,297,-297,297","w":1208},"\u2026":{"d":"918,-254r212,0r0,254r-212,0r0,-254xm1599,-254r213,0r0,254r-213,0r0,-254xm236,-254r213,0r0,254r-213,0r0,-254","w":2048},"\u2013":{"d":"0,-633r1024,0r0,144r-1024,0r0,-144","w":1024},"\u2014":{"d":"0,-633r2048,0r0,144r-2048,0r0,-144","w":2048},"\u201c":{"d":"385,-1001r-211,0r0,-173r164,-319r129,0r-82,319r0,173xm795,-1001r-211,0r0,-173r164,-319r129,0r-82,319r0,173","w":1061,"k":{"\u011e":73,"\u00f6":149,"\u00d6":73,"\u00c7":73,"y":73,"w":73,"v":73,"r":112,"o":149,"n":112,"f":73,"Z":36,"X":120,"R":63,"Q":73,"P":63,"O":73,"L":63,"K":63,"J":63,"H":63,"G":73,"F":63,"D":63,"C":73,"B":63,"A":264}},"\u201d":{"d":"256,-1493r211,0r0,172r-164,320r-129,0r82,-320r0,-172xm666,-1493r211,0r0,172r-164,320r-129,0r82,-320r0,-172","w":1061},"\u2018":{"d":"385,-1001r-211,0r0,-173r164,-319r129,0r-82,319r0,173","w":651},"\u2019":{"d":"260,-1493r211,0r0,152r-164,319r-129,0r82,-319r0,-152","w":651},"\u2039":{"d":"627,-1059r0,191r-301,268r301,268r0,191r-469,-418r0,-82","w":819},"\u203a":{"d":"193,-1059r469,418r0,82r-469,418r0,-191r301,-268r-301,-268r0,-191","w":819},"\u2021":{"d":"967,-223r-367,0r0,420r-176,0r0,-420r-367,0r0,-154r367,0r0,-543r-367,0r0,-153r367,0r0,-420r176,0r0,420r367,0r0,153r-367,0r0,543r367,0r0,154","w":1024},"\u201a":{"d":"256,-254r211,0r0,172r-164,320r-129,0r82,-320r0,-172","w":651},"\u201e":{"d":"666,-254r211,0r0,172r-164,320r-129,0r82,-320r0,-172xm256,-254r211,0r0,172r-164,320r-129,0r82,-320r0,-172","w":1061,"k":{"\u011e":73,"\u00f6":73,"\u00d6":112,"\u00c7":112,"y":112,"w":196,"v":235,"r":73,"o":73,"n":73,"f":36,"Y":376,"X":73,"W":253,"V":376,"T":282,"R":73,"Q":112,"P":73,"O":112,"L":73,"K":73,"J":-47,"H":73,"G":73,"F":73,"D":73,"C":112,"B":73,"A":-38}},"\u2030":{"d":"2476,-377v0,-151,-53,-280,-184,-280v-133,0,-187,128,-187,280v0,151,55,279,187,279v130,0,184,-130,184,-279xm1946,-377v0,-234,124,-407,346,-407v220,-1,344,175,344,407v0,233,-124,406,-344,406v-222,1,-346,-173,-346,-406xm113,-1114v0,-232,124,-406,344,-406v220,-1,346,173,346,406v0,235,-123,407,-346,407v-222,0,-344,-173,-344,-407xm1360,-1520r160,0r-934,1549r-160,0xm643,-1114v0,-149,-55,-279,-186,-279v-131,0,-185,129,-185,279v0,153,52,280,185,280v133,0,186,-128,186,-280xm1143,-377v0,-234,124,-407,346,-407v220,-1,344,175,344,407v0,233,-124,406,-344,406v-222,1,-346,-173,-346,-406xm1673,-377v0,-151,-53,-280,-184,-280v-133,0,-186,128,-186,280v0,151,54,279,186,279v130,0,184,-130,184,-279","w":2748},"\u0131":{"d":"193,-1120r184,0r0,1120r-184,0r0,-1120","w":569},"\u011e":{"d":"1108,-1901v-14,164,-130,242,-313,242v-185,0,-299,-76,-313,-242r118,0v20,77,92,112,195,111v105,0,172,-33,195,-111r118,0xm877,-137v143,0,252,-24,342,-76r0,-401r-330,0r0,-166r530,0r0,641v-144,103,-327,167,-559,168v-469,3,-745,-298,-745,-774v0,-477,275,-778,745,-775v211,1,384,55,520,142r0,215v-131,-111,-286,-191,-503,-191v-378,0,-549,219,-549,609v0,389,171,607,549,608","w":1587,"k":{"\u201e":55,"\u201d":45,"\u201c":45,"Y":102,"T":73}},"\u011f":{"d":"964,-1608v-13,187,-116,287,-313,287v-197,0,-301,-100,-313,-287r118,0v15,100,79,150,195,150v116,0,178,-50,195,-150r118,0xm616,-154v218,0,314,-180,314,-419v0,-241,-95,-420,-314,-420v-217,0,-313,181,-313,420v0,239,96,419,313,419xm571,-1147v180,0,289,75,359,197r0,-170r184,0r0,981v0,371,-155,563,-516,565v-137,0,-247,-21,-350,-59r0,-179v95,51,191,86,321,86v246,0,361,-130,361,-380r0,-91v-70,122,-178,197,-359,197v-293,0,-458,-258,-458,-573v0,-317,164,-574,458,-574","w":1300},"\u0130":{"d":"201,-1872r204,0r0,205r-204,0r0,-205xm201,-1493r202,0r0,1493r-202,0r0,-1493","w":604},"\u015e":{"d":"704,178v-5,-71,-45,-117,-88,-178r119,0v56,66,109,121,109,215v0,131,-95,181,-238,180v-66,0,-122,-9,-176,-24r0,-131v78,41,282,64,274,-62xm659,-1520v162,2,303,31,437,76r0,197v-129,-61,-252,-107,-414,-109v-196,-3,-344,70,-344,246v0,66,22,114,60,150v51,48,232,83,347,106v266,52,441,161,441,442v0,316,-230,443,-572,441v-173,-1,-329,-42,-473,-95r0,-208v140,78,284,137,473,139v207,3,358,-75,361,-262v3,-224,-209,-249,-412,-289v-151,-30,-260,-77,-327,-141v-67,-64,-101,-153,-101,-267v1,-281,223,-430,524,-426","w":1300,"k":{"A":-38}},"\u015f":{"d":"588,178v-5,-71,-45,-117,-88,-178r119,0v56,66,109,121,109,215v0,131,-95,181,-238,180v-66,0,-122,-9,-176,-24r0,-131v78,41,282,64,274,-62xm549,-1147v138,1,258,21,358,60r0,174v-95,-49,-202,-80,-336,-80v-156,0,-274,35,-274,168v0,43,18,75,49,101v34,28,167,64,260,83v131,27,223,68,278,119v55,51,83,122,83,213v0,230,-207,342,-463,338v-145,-1,-269,-30,-393,-70r0,-190v118,61,240,104,397,106v148,2,270,-43,270,-170v0,-50,-19,-86,-50,-115v-32,-30,-184,-70,-286,-92v-197,-44,-323,-108,-323,-315v0,-230,180,-332,430,-330","w":1067},"\u20ac":{"d":"797,-1520v157,0,271,61,370,142r0,213v-104,-115,-183,-195,-362,-195v-234,0,-355,165,-391,387r577,0r-55,123r-538,0v-6,65,-2,139,0,207r446,0r-56,123r-374,0v37,222,156,389,391,389v178,0,259,-80,362,-195r0,211v-101,81,-212,144,-370,144v-340,0,-541,-233,-586,-549r-211,0r55,-123r139,0r0,-207r-194,0r55,-123r156,0v45,-315,247,-547,586,-547"},"\u00a0":{"w":651}}});
